tree
version=v4
num_class=1
num_tree_per_iteration=1
label_index=0
max_feature_idx=47
objective=regression
feature_names=a158_cord30 a158_corr5 a158_rank5 a158_std60 a158_vma5 a158_vstd30 a158_vsump5 a158_vsump60 amihud_20 atr_norm_20 beta_market_20 bp_ratio chmom_60_20 dv_ttm ep_ratio gain_loss_ratio_20 gap_frequency_20 high_low_range_20 ivol_20 kbar_kmid kbar_ksft kbar_kup large_order_ratio ln_market_cap maxret_20 mf_divergence momentum_10 momentum_20 momentum_5 money_flow_strength price_level_factor price_volume_corr_20 relative_volume_20 reversal_10 reversal_20 reversal_5 reversal_60 rsrs_raw_18 stoch_rsv_20 turnover_mean_20 turnover_stability_20 turnover_std_20 turnover_surge_ratio up_days_ratio_20 volatility_20 volatility_60 volume_std_20 vwap_bias_1d
feature_infos=[-3.0085880756378174:3.0069377422332764] [-3.001762866973877:2.9405415058135986] [-3.0130851268768311:3.0162456035614014] [-2.8783516883850098:2.6740639209747314] [-3.0211255550384521:3.0251801013946533] [-3.0310211181640625:2.6135745048522949] [-2.9633781909942627:3.0054328441619873] [-2.6310529708862305:2.650684118270874] [-2.8809478282928467:2.3645946979522705] [-2.5011417865753174:3.0188918113708496] [-2.8799028396606445:2.8687608242034912] [-2.9766130447387695:2.7145869731903076] [-2.8748197555541992:2.7056488990783691] [-3.0791900157928467:2.6955559253692627] [-2.7442007064819336:2.5847465991973877] [-3.2574384212493896:3.2400779724121094] [-1.2642444372177124:2.8124153614044189] [-3.2289595603942871:2.9202229976654053] [-2.0820367336273193:2.9116361141204834] [-2.7564089298248291:2.6392734050750732] [-2.75494384765625:2.6814506053924561] [-3.0479602813720703:2.6157290935516357] [-3.2929513454437256:3.1131279468536377] [-2.8914940357208252:2.6765844821929932] [-2.5391931533813477:2.9161100387573242] [-3.2155697345733643:3.0451765060424805] [-2.8307836055755615:2.6857364177703857] [-2.8644928932189941:2.6925375461578369] [-2.7717950344085693:2.6455662250518799] [-2.4479320049285889:2.5133352279663086] [-3.2839632034301758:3.3561577796936035] [-3.1315486431121826:2.9490041732788086] [-2.9606952667236328:2.5040318965911865] [-2.6857364177703857:2.8307836055755615] [-2.7186219692230225:2.8874087333679199] [-2.6455662250518799:2.7717950344085693] [-2.6723134517669678:2.8914158344268799] [-2.9083716869354248:2.9075257778167725] [-3.6264002323150635:3.4723920822143555] [-2.8612740039825439:2.4193308353424072] [-2.8565247058868408:2.3972384929656982] [-2.5439949035644531:2.4309170246124268] [-3.0429491996765137:2.7497313022613525] [-3.3540549278259277:3.3545348644256592] [-3.1974925994873047:2.8602709770202637] [-2.9191215038299561:2.9572727680206299] [-2.906583309173584:2.3572497367858887] [-2.7622380256652832:2.6947958469390869]
tree_sizes=1739 1750 1759 1758 1762 1757 1765 1751

Tree=0
num_leaves=16
num_cat=0
split_feature=24 47 47 41 24 24 39 3 3 39 41 39 41 41 11
split_gain=265.882 190.654 357.383 74.1663 67.0351 62.3132 42.9901 38.6427 43.3877 36.13 42.8172 36.0077 34.5998 26.4517 29.6524
threshold=0.02268216293305159 -1.0000000180025095e-35 0.00011018843360943721 0.032396482303738601 0.02268991153687239 0.02268991153687239 1.8361985683441164 -1.0000000180025095e-35 0.0079047312028706091 1.495092034339905 0.34653992950916296 1.495092034339905 0.1487754285335541 0.032404812052845962 0.66328880190849315
decision_type=2 2 2 2 2 2 2 2 2 2 2 2 2 2 2
left_child=3 5 6 7 -4 -2 -3 -1 -9 -7 -11 -6 -13 14 -5
right_child=1 2 4 13 11 9 -8 8 -10 10 -12 12 -14 -15 -16
leaf_value=0.0017311058866289791 0.002831050679841963 -0.00084509633231161598 0.0027923907731850868 0.00010610608718848908 0.0012635989537118609 0.0014473611022893852 -0.0026964683890900367 0.0036606320410749226 0.0020496157467545782 -0.0026315869709341187 0.00073193625116717406 -0.0030219172608276362 0.00039468396782004606 0.001665030750376485 0.0017599427459924154
leaf_weight=205141 59464 317134 55384 85164 146827 153953 30965 64407 90134 10912 37788 8443 31318 85280 33579
leaf_count=205141 59464 317134 55384 85164 146827 153953 30965 64407 90134 10912 37788 8443 31318 85280 33579
internal_value=0.000954916 0.000428701 -4.19669e-05 0.00175001 0.00135047 0.00148737 -0.00101053 0.0021578 0.00272264 0.0010919 -2.69594e-05 0.000923648 -0.000337323 0.00102994 0.000575764
internal_weight=1.41589e+06 852188 590071 563705 241972 262117 348099 359682 154541 202653 48700 186588 39761 204023 118743
internal_count=1415893 852188 590071 563705 241972 262117 348099 359682 154541 202653 48700 186588 39761 204023 118743
is_linear=0
shrinkage=1


Tree=1
num_leaves=16
num_cat=0
split_feature=40 40 41 41 23 39 39 38 9 9 9 30 9 39 15
split_gain=466.46 326.251 147.892 93.7251 49.4398 43.3838 39.7237 33.1332 30.4149 38.9729 23.7156 24.276 21.7843 19.9996 19.1425
threshold=0.030236018821597103 0.030264104716479782 0.032404812052845962 0.032396482303738601 0.25349693000316625 1.495092034339905 1.8361985683441164 1.0000000180025095e-35 -2.3379940986633296 -0.49053871631622309 -2.3379940986633296 0.20588114857673648 -0.56060966849327076 -0.037085413932800286 1.1673030257225039
decision_type=2 2 2 2 2 2 2 2 2 2 2 2 2 2 2
left_child=3 6 5 4 -1 -3 10 -4 -5 -10 11 -2 -12 -14 -7
right_child=1 2 7 8 -6 14 -8 -9 9 -11 12 -13 13 -15 -16
leaf_value=0.0015245165841110194 -0.0013719641980522496 -0.00095198240294787297 0.0010039477285153629 -0.0019121031056826903 0.00057553136132257646 -0.0025552680679382989 -0.0034862916904456268 7.9769035067917366e-06 0.0011528298450796969 -0.00059699650743682978 -0.0024511083418426263 0.0009996545313195129 -0.0010983602139072234 -0.0021404587216677165 -0.0057370122877101592
leaf_weight=342486 37132 61435 181935 19664 191739 18291 31062 126709 46757 71940 97817 12854 94826 74455 5739
leaf_count=342486 37132 61435 181935 19664 191739 18291 31062 126709 46757 71940 97817 12854 94826 74455 5739
internal_value=2.68855e-07 -0.00081538 0.000114136 0.000900749 0.00118436 -0.0016226 -0.00186826 0.000595829 -0.000192645 9.03755e-05 -0.00170893 -0.0007574 -0.00188611 -0.00155816 -0.00332653
internal_weight=1.41484e+06 742255 394109 672586 534225 85465 348146 308644 138361 118697 317084 49986 267098 169281 24030
internal_count=1414841 742255 394109 672586 534225 85465 348146 308644 138361 118697 317084 49986 267098 169281 24030
is_linear=0
shrinkage=0.0472


Tree=2
num_leaves=16
num_cat=0
split_feature=40 40 18 17 17 38 38 39 23 9 11 23 17 30 39
split_gain=426.735 294.606 111.249 48.2898 50.0821 46.6847 35.8994 35.5916 32.8946 32.6651 29.2951 28.0285 25.77 25.6073 22.1006
threshold=0.030236018821597103 0.030264104716479782 -1.9769468903541563 0.033474707975983627 0.033501880243420608 -1.0000000180025095e-35 -0.0063745749648660413 1.495092034339905 0.47993557155132299 -1.4923717379570005 0.66328880190849315 0.79256457090377819 0.033501880243420608 0.28650465607643133 1.8361985683441164
decision_type=2 2 2 2 2 2 2 2 2 2 2 2 2 2 2
left_child=3 2 9 8 10 6 -3 -7 -1 13 -5 14 -9 -2 -4
right_child=1 5 11 4 -6 7 -8 12 -10 -11 -12 -13 -14 -15 -16
leaf_value=0.0014392934791962995 -0.0014539389335986193 0.00025867486126147021 -0.0022653277259001045 -0.00075811357213736606 0.00098722665231525293 -2.901653748976162e-05 0.0017788120972619303 -0.003157132558202865 0.00047637876214396855 0.0010680890494863501 0.00084604362068901168 -0.0007452556837202794 -0.00083299473161888482 0.0009762895246976848 -0.0038546858912845211
leaf_weight=300276 44254 183300 217195 91492 137737 116295 42826 15189 108380 27091 34972 25265 36865 12231 21963
leaf_count=300276 44254 183300 217195 91492 137737 116295 42826 15189 108380 27091 34972 25265 36865 12231 21963
internal_value=1.6449e-06 -0.0007784 -0.00177944 0.00086274 0.000364155 0.000104131 0.000547653 -0.000490228 0.0011845 -0.000275146 -0.000312647 -0.002254 -0.00151601 -0.000923542 -0.00241239
internal_weight=1.41533e+06 742474 347999 672857 264201 394475 226126 168349 408656 83576 126464 264423 52054 56485 239158
internal_count=1415331 742474 347999 672857 264201 394475 226126 168349 408656 83576 126464 264423 52054 56485 239158
is_linear=0
shrinkage=0.0472


Tree=3
num_leaves=16
num_cat=0
split_feature=40 40 41 18 41 45 23 40 9 18 9 16 16 0 0
split_gain=381.859 270.592 132.159 100.284 77.654 51.3239 43.6117 34.8559 29.8221 26.9844 34.3661 23.1193 19.9013 14.781 29.8035
threshold=0.030236018821597103 0.030264104716479782 0.032404812052845962 -1.9769468903541563 0.032396482303738601 1.6550323963165285 -0.16110580414533612 0.91421386599540722 -1.4923717379570005 -1.9769468903541563 -0.59614270925521839 2.1957768201828007 -0.70833656191825856 1.0000000180025095e-35 -0.00083068007370457042
decision_type=2 2 2 2 2 2 2 2 2 2 2 2 2 2 2
left_child=4 3 7 8 6 12 -1 -3 -2 -6 -11 13 -5 14 -4
right_child=1 2 11 5 9 -7 -8 -9 -10 10 -12 -13 -14 -15 -16
leaf_value=0.0014950384204125316 -0.0008858686967073994 -0.0006869315330096541 0.00068744370503516386 -0.0026547625781604303 -0.0017927146352719552 -0.0045215669035666211 0.00064018638068529703 -0.0026175578530321332 0.0010189692180258398 0.001218511357186708 -0.00048296103696439374 -0.00076552159427398301 -0.0016952773217719288 0.00043047582067678091 0.002582864803370194
leaf_weight=270509 56450 48159 77630 67993 19818 18959 264144 37316 27017 39822 78569 26460 177707 180183 24507
leaf_count=270509 56450 48159 77630 67993 19818 18959 264144 37316 27017 39822 78569 26460 177707 180183 24507
internal_value=7.45039e-07 -0.000737208 0.000109013 -0.0016962 0.000815286 -0.0021462 0.00107315 -0.00153267 -0.000266487 -0.000180579 8.74366e-05 0.000564236 -0.00196182 0.000689705 0.00114468
internal_weight=1.41524e+06 742381 394255 348126 672862 264659 534653 85475 83467 138209 118391 308780 245700 282320 102137
internal_count=1415243 742381 394255 348126 672862 264659 534653 85475 83467 138209 118391 308780 245700 282320 102137
is_linear=0
shrinkage=0.0472


Tree=4
num_leaves=16
num_cat=0
split_feature=40 40 41 18 41 45 39 30 38 18 25 25 16 18 16
split_gain=347.487 243.778 119.169 90.7434 69.607 45.4298 34.7348 29.4453 27.6658 24.6883 25.9957 41.2496 22.9547 21.4721 20.4426
threshold=0.030236018821597103 0.030264104716479782 0.032404812052845962 -1.9769468903541563 0.032396482303738601 1.6550323963165285 1.495092034339905 0.16411090642213824 1.0000000180025095e-35 -1.9769468903541563 -1.0000000180025095e-35 0.010755156166851522 -0.13588326424360272 1.6533101797103884 -0.13588326424360272
decision_type=2 2 2 2 2 2 2 2 2 2 2 2 2 2 2
left_child=4 3 6 7 -1 -5 -3 -2 -4 -6 14 -12 -13 -10 -11
right_child=1 2 8 5 9 -7 -8 -9 13 10 11 12 -14 -15 -16
leaf_value=0.001022416021821885 -0.00087430180318862614 -0.00085818311599702795 0.00090579641008638927 -0.0018671804086914394 -0.0017061658318888457 -0.0042733011757753649 -0.0029832619215424123 0.0010125861494865288 0.00028632656818270352 0.0015224884509658888 -0.0025921261045886829 0.0012365466515019273 -0.00095794491122670018 -0.0013084107136045776 -0.00024579304326744367
leaf_weight=534062 56027 61676 181868 245867 19810 19008 24013 27370 103887 35027 16724 21935 20506 22959 24584
leaf_count=534062 56027 61676 181868 245867 19810 19008 24013 27370 103887 35027 16724 21935 20506 22959 24584
internal_value=4.89426e-07 -0.00070319 9.98406e-05 -0.00161323 0.00077777 -0.00204085 -0.00145664 -0.000252229 0.000532647 -0.000163347 9.21253e-05 -0.000606526 0.000170811 -5.61776e-07 0.000789421
internal_weight=1.41532e+06 742675 394403 348272 672648 264875 85689 83397 308714 138586 118776 59165 42441 126846 59611
internal_count=1415323 742675 394403 348272 672648 264875 85689 83397 308714 138586 118776 59165 42441 126846 59611
is_linear=0
shrinkage=0.0472


Tree=5
num_leaves=16
num_cat=0
split_feature=40 40 41 18 41 45 23 39 9 38 18 9 30 23 18
split_gain=323.722 224.356 111.061 82.5952 63.1001 41.2728 39.4757 32.8651 26.7263 23.4921 22.1107 29.4018 20.8909 19.7522 18.8206
threshold=0.030236018821597103 0.030264104716479782 0.032404812052845962 -1.9769468903541563 0.032396482303738601 1.6550323963165285 -0.16110580414533612 1.495092034339905 -1.4923717379570005 1.0000000180025095e-35 -1.9769468903541563 -0.70549321174621571 0.28650465607643133 0.79256457090377819 1.2625046968460085
decision_type=2 2 2 2 2 2 2 2 2 2 2 2 2 2 2
left_child=4 3 7 8 6 13 -1 -3 12 -4 -6 -12 -2 -5 -11
right_child=1 2 9 5 10 -7 -8 -9 -10 14 11 -13 -14 -15 -16
leaf_value=0.0013838588519295677 -0.0013172954483313679 -0.00082718566782791388 0.00085325949752771703 -0.001936965603216349 -0.0016121707435717432 -0.0040899390575660039 0.0005705940028486483 -0.0028913431380909881 0.00096290167630434592 0.00035737243487370612 0.0012820236834089147 -0.00036863541204255532 0.00087886820481691396 -0.00051365068401318728 -0.00095086546574725593
leaf_weight=270687 44432 61514 181652 220944 19682 18999 264055 24140 26971 94074 33439 85266 12188 24604 33108
leaf_count=270687 44432 61514 181652 220944 19682 18999 264055 24140 26971 94074 33439 85266 12188 24604 33108
internal_value=3.57325e-07 -0.000678989 9.11583e-05 -0.00155232 0.000750186 -0.00196111 0.000982718 -0.00141186 -0.000255749 0.000508792 -0.000146675 9.446e-05 -0.0008404 -0.00179531 1.4951e-05
internal_weight=1.41576e+06 742626 394488 348138 673129 264547 534742 85654 83591 308834 138387 118705 56620 245548 127182
internal_count=1415755 742626 394488 348138 673129 264547 534742 85654 83591 308834 138387 118705 56620 245548 127182
is_linear=0
shrinkage=0.0472


Tree=6
num_leaves=16
num_cat=0
split_feature=40 40 41 41 45 23 40 38 11 16 41 0 0 9 38
split_gain=287.846 203.021 99.6972 58.1257 38.8154 36.9847 29.8701 21.9611 20.9724 15.7066 15.6598 15.5385 112.291 49.4022 15.2246
threshold=0.030236018821597103 0.030264104716479782 0.032404812052845962 0.032396482303738601 1.6550323963165285 0.5356716811656953 1.3611497879028323 1.0000000180025095e-35 0.66328880190849315 1.9256107807159426 0.032404812052845962 -1.0000000180025095e-35 -0.00083068007370457042 -2.3379940986633296 -0.0063745749648660413
decision_type=2 2 2 2 2 2 2 2 2 2 2 2 2 2 2
left_child=3 4 6 5 -2 11 -3 14 10 -9 -5 12 -1 -14 -4
right_child=1 2 7 8 -6 -7 -8 9 -10 -11 -12 -13 13 -15 -16
leaf_value=0.0010876511691460052 -0.0013303977276584397 -0.00070852420119090409 0.00058507349868031522 -0.00069890378019791025 -0.0032517612050963359 0.00029755104960951095 -0.0025933290320787313 0.00021228878905413297 0.00079717434578039249 -0.0013629062028862719 0.0013313956252914429 0.00081832059502028715 0.00065034612083775332 0.0060101379409699708 0.001624565488826786
leaf_weight=202606 322686 57382 140591 91551 25470 149463 28194 110616 37416 16152 9248 161494 5177 15946 40997
leaf_count=202606 322686 57382 140591 91551 25470 149463 28194 110616 37416 16152 9248 161494 5177 15946 40997
internal_value=-2.20405e-08 -0.000641235 9.21558e-05 0.000706774 -0.0014717 0.000929871 -0.0013324 0.000488279 -0.000154607 9.68313e-06 -0.000510237 0.00117459 0.00143068 0.00470826 0.000821099
internal_weight=1.41499e+06 742088 393932 672901 348156 534686 85576 308356 138215 126768 100799 385223 223729 21123 181588
internal_count=1414989 742088 393932 672901 348156 534686 85576 308356 138215 126768 100799 385223 223729 21123 181588
is_linear=0
shrinkage=0.0472


Tree=7
num_leaves=16
num_cat=0
split_feature=24 47 47 18 24 24 41 45 3 3 30 39 5 5 18
split_gain=134.902 103.68 177.136 74.1811 47.0554 42.1375 35.808 35.7047 31.8714 36.8506 24.0229 23.7827 23.4199 48.9306 26.3967
threshold=0.02268216293305159 1.0000000180025095e-35 0.00011018843360943721 -1.9769468903541563 0.02268991153687239 0.02268991153687239 0.032396482303738601 1.8534821867942812 1.0000000180025095e-35 0.0079047312028706091 0.16411090642213824 1.495092034339905 -1.0000000180025095e-35 0.0039334697648882875 -1.9769468903541563
decision_type=2 2 2 2 2 2 2 2 2 2 2 2 2 2 2
left_child=6 5 3 10 -4 -2 8 -5 -1 12 -3 -6 -10 14 -14
right_child=1 2 4 7 11 -7 -8 -9 9 -11 -12 -13 13 -15 -16
leaf_value=0.00046122877330558097 0.001509433727402154 -0.00073720758591291089 0.001467568871628311 -0.0016530609011862546 0.00017757209558338057 7.9171526037498125e-05 6.40881952595328e-05 -0.0040055437928711536 0.0012599554443981794 0.00074111666005567342 0.00096483776042762199 -0.0011227626448370152 0.0011357847108168591 0.0012238322764129583 0.0057668784122282485
leaf_weight=205081 59488 56105 55311 249446 146326 202435 203600 15418 30420 90137 27471 39821 3587 16568 13861
leaf_count=205081 59488 56105 55311 249446 146326 202435 203600 15418 30420 90137 27471 39821 3587 16568 13861
internal_value=-1.0581e-06 -0.000375968 -0.000723094 -0.00140405 0.000258632 0.000404935 0.000565513 -0.001791 0.000848717 0.00136127 -0.000174943 -9.93929e-05 0.00222497 0.00308064 0.00482908
internal_weight=1.41508e+06 851821 589898 348440 241458 261923 563254 264864 359654 154573 83576 186147 64436 34016 17448
internal_count=1415075 851821 589898 348440 241458 261923 563254 264864 359654 154573 83576 186147 64436 34016 17448
is_linear=0
shrinkage=0.0472


end of trees

feature_importances:
turnover_std_20=16
turnover_stability_20=14
ivol_20=11
turnover_mean_20=11
atr_norm_20=10
ln_market_cap=7
stoch_rsv_20=7
maxret_20=6
gap_frequency_20=5
price_level_factor=5
volatility_60=5
a158_cord30=4
a158_std60=4
vwap_bias_1d=4
bp_ratio=3
high_low_range_20=3
a158_vstd30=2
mf_divergence=2
gain_loss_ratio_20=1

parameters:
[boosting: gbdt]
[objective: regression]
[metric: l2]
[tree_learner: serial]
[device_type: gpu]
[data_sample_strategy: bagging]
[data: ]
[valid: ]
[num_iterations: 500]
[learning_rate: 0.0472]
[num_leaves: 16]
[num_threads: -1]
[seed: 42]
[deterministic: 0]
[force_col_wise: 1]
[force_row_wise: 0]
[histogram_pool_size: -1]
[max_depth: 8]
[min_data_in_leaf: 60]
[min_sum_hessian_in_leaf: 0.001]
[bagging_fraction: 0.777]
[pos_bagging_fraction: 1]
[neg_bagging_fraction: 1]
[bagging_freq: 1]
[bagging_seed: 400]
[bagging_by_query: 0]
[feature_fraction: 0.794]
[feature_fraction_bynode: 1]
[feature_fraction_seed: 30056]
[extra_trees: 0]
[extra_seed: 12879]
[early_stopping_round: 50]
[early_stopping_min_delta: 0]
[first_metric_only: 0]
[max_delta_step: 0]
[lambda_l1: 4.906]
[lambda_l2: 8.447]
[linear_lambda: 0]
[min_gain_to_split: 0.072]
[drop_rate: 0.1]
[max_drop: 50]
[skip_drop: 0.5]
[xgboost_dart_mode: 0]
[uniform_drop: 0]
[drop_seed: 17869]
[top_rate: 0.2]
[other_rate: 0.1]
[min_data_per_group: 100]
[max_cat_threshold: 32]
[cat_l2: 10]
[cat_smooth: 10]
[max_cat_to_onehot: 4]
[top_k: 20]
[monotone_constraints: ]
[monotone_constraints_method: basic]
[monotone_penalty: 0]
[feature_contri: ]
[forcedsplits_filename: ]
[refit_decay_rate: 0.9]
[cegb_tradeoff: 1]
[cegb_penalty_split: 0]
[cegb_penalty_feature_lazy: ]
[cegb_penalty_feature_coupled: ]
[path_smooth: 0]
[interaction_constraints: ]
[verbosity: -1]
[saved_feature_importance_type: 0]
[use_quantized_grad: 0]
[num_grad_quant_bins: 4]
[quant_train_renew_leaf: 0]
[stochastic_rounding: 1]
[linear_tree: 0]
[max_bin: 63]
[max_bin_by_feature: ]
[min_data_in_bin: 3]
[bin_construct_sample_cnt: 200000]
[data_random_seed: 175]
[is_enable_sparse: 1]
[enable_bundle: 1]
[use_missing: 1]
[zero_as_missing: 0]
[feature_pre_filter: 1]
[pre_partition: 0]
[two_round: 0]
[header: 0]
[label_column: ]
[weight_column: ]
[group_column: ]
[ignore_column: ]
[categorical_feature: ]
[forcedbins_filename: ]
[precise_float_parser: 0]
[parser_config_file: ]
[objective_seed: 16083]
[num_class: 1]
[is_unbalance: 0]
[scale_pos_weight: 1]
[sigmoid: 1]
[boost_from_average: 1]
[reg_sqrt: 0]
[alpha: 0.9]
[fair_c: 1]
[poisson_max_delta_step: 0.7]
[tweedie_variance_power: 1.5]
[lambdarank_truncation_level: 30]
[lambdarank_norm: 1]
[label_gain: ]
[lambdarank_position_bias_regularization: 0]
[eval_at: ]
[multi_error_top_k: 1]
[auc_mu_weights: ]
[num_machines: 1]
[local_listen_port: 12400]
[time_out: 120]
[machine_list_filename: ]
[machines: ]
[gpu_platform_id: 0]
[gpu_device_id: 0]
[gpu_use_dp: 0]
[num_gpu: 1]

end of parameters

pandas_categorical:null
