tree
version=v4
num_class=1
num_tree_per_iteration=1
label_index=0
max_feature_idx=47
objective=regression
feature_names=a158_cord30 a158_corr5 a158_rank5 a158_std60 a158_vma5 a158_vstd30 a158_vsump5 a158_vsump60 amihud_20 atr_norm_20 beta_market_20 bp_ratio chmom_60_20 dv_ttm ep_ratio gain_loss_ratio_20 gap_frequency_20 high_low_range_20 ivol_20 kbar_kmid kbar_ksft kbar_kup large_order_ratio ln_market_cap maxret_20 mf_divergence momentum_10 momentum_20 momentum_5 money_flow_strength price_level_factor price_volume_corr_20 relative_volume_20 reversal_10 reversal_20 reversal_5 reversal_60 rsrs_raw_18 stoch_rsv_20 turnover_mean_20 turnover_stability_20 turnover_std_20 turnover_surge_ratio up_days_ratio_20 volatility_20 volatility_60 volume_std_20 vwap_bias_1d
feature_infos=[-3.0094037055969238:3.0076212882995605] [-3.0017669200897217:2.8964443206787109] [-3.0120193958282471:3.0149195194244385] [-3.0483806133270264:2.6813163757324219] [-3.021899938583374:3.0059552192687988] [-2.8938329219818115:2.6039762496948242] [-2.9546496868133545:3.0057282447814941] [-2.6123018264770508:2.6392614841461182] [-2.8589870929718018:2.3304245471954346] [-2.4746878147125244:2.9841241836547852] [-2.8356940746307373:2.837148904800415] [-3.0022273063659668:2.7619550228118896] [-2.8635053634643555:2.6869938373565674] [-3.123478889465332:2.7218976020812988] [-2.7338860034942627:2.5874910354614258] [-3.2051155567169189:3.2076349258422852] [-1.2086290121078491:2.7856991291046143] [-3.2275424003601074:2.9114313125610352] [-2.0419464111328125:2.868523120880127] [-2.7425899505615234:2.629138708114624] [-2.7430839538574219:2.6770081520080566] [-3.0388181209564209:2.6070735454559326] [-3.3453900814056396:3.1736049652099609] [-2.9581928253173828:2.7368710041046143] [-2.5458559989929199:2.8189280033111572] [-3.2043344974517822:2.9942059516906738] [-2.7974550724029541:2.6567296981811523] [-2.8317520618438721:2.66477370262146] [-2.7458429336547852:2.6230480670928955] [-2.4383468627929688:2.5109593868255615] [-3.3200039863586426:3.3801007270812988] [-3.1258993148803711:2.9480154514312744] [-2.9454953670501709:2.4951610565185547] [-2.6567296981811523:2.7974550724029541] [-2.6897330284118652:2.8541066646575928] [-2.6230480670928955:2.7458429336547852] [-2.6724562644958496:2.8829343318939209] [-2.8988616466522217:2.9006421566009521] [-3.5871274471282959:3.4955642223358154] [-2.8812863826751709:2.4021079540252686] [-2.8531143665313721:2.3948895931243896] [-2.7192111015319824:2.4190249443054199] [-3.0103590488433838:2.720576286315918] [-3.3469698429107666:3.3490633964538574] [-3.1834619045257568:2.836406946182251] [-3.2702991962432861:2.9832587242126465] [-2.880789041519165:2.3341140747070312] [-2.7480556964874268:2.6849987506866455]
tree_sizes=1739 1767 1778 1766 1781 1780 1782 1781 1778 1770 1791 1787 1798 1788 1792 1788 1791 1783 1796 1798 1767 1770 1789 1787 1793 1793 1775 1785 1797 1802 1789 1785 1794 1801 1796 1792 1806 1800 1787 1769 1792 1784 1766 1793 1782 1799 1790 1791

Tree=0
num_leaves=16
num_cat=0
split_feature=23 2 2 39 39 39 24 24 9 38 9 30 39 23 38
split_gain=199.175 159.027 504.456 52.1388 42.5135 37.2299 30.0877 28.3602 24.4319 22.5194 22.5077 22.0879 20.5686 16.4827 16.4353
threshold=-0.56768426299095143 1.0000000180025095e-35 0.0014565984602086248 0.61616691946983349 1.3360812664031985 1.8329166173934939 0.056941611692309387 0.019468751735985283 -2.3005290031433101 1.0000000180025095e-35 -0.42049898207187647 0.2858834713697434 -0.038852237164974206 0.55534180998802196 -1.0000000180025095e-35
decision_type=2 2 2 2 2 2 2 2 2 2 2 2 2 2 2
left_child=4 6 5 13 -1 8 7 -2 11 -6 -10 -3 -12 -4 -5
right_child=1 2 3 14 9 -7 -8 -9 10 -11 12 -13 -14 -15 -16
leaf_value=0.0056327845073555413 0.0050538892008456871 0.0032101471994943139 0.0053501571060952458 0.0047148506468040838 0.0050466333948746295 0.0010875630955926143 0.004604847457312349 0.0059407716579644417 0.0020212492421624682 0.0034295222047317888 0.0034360609025564587 0.005562696256820359 0.0023539230840591689 0.0047860061484309236 0.0036344051643908775
leaf_weight=544726 358947 38012 291247 52910 56624 31984 242134 103958 94643 28899 88638 11456 72463 192511 78716
leaf_count=544726 358947 38012 291247 52910 56624 31984 242134 103958 94643 28899 88638 11456 72463 192511 78716
internal_value=0.00476497 0.00449332 0.00409552 0.0048992 0.00547908 0.00262815 0.00503046 0.00525358 0.00279045 0.00450283 0.00260391 0.00375968 0.00294778 0.00512614 0.00406692
internal_weight=2.28787e+06 1.65762e+06 952580 615384 630249 337196 705039 462905 305212 85523 255744 49468 161101 483758 131626
internal_count=2287868 1657619 952580 615384 630249 337196 705039 462905 305212 85523 255744 49468 161101 483758 131626
is_linear=0
shrinkage=1


Tree=1
num_leaves=16
num_cat=0
split_feature=40 40 23 38 39 39 38 41 9 30 9 9 41 39 22
split_gain=446.904 417.562 68.2962 65.7967 40.9327 39.735 36.3167 29.3108 21.547 22.3844 20.5391 20.1994 19.3134 18.1459 18.1154
threshold=0.027098481543362144 0.027126425877213482 -0.13402687013149259 -1.0000000180025095e-35 1.6688059568405154 1.8329166173934939 -0.0081037404015660269 0.067958749830722823 -2.3005290031433101 0.20472710579633716 -2.3005290031433101 -0.45313085615634913 0.028825938701629642 -0.038852237164974206 0.22018764913082126
decision_type=2 2 2 2 2 2 2 2 2 2 2 2 2 2 2
left_child=2 5 10 6 -5 8 12 -6 9 -2 14 -10 -3 -13 -1
right_child=1 3 -4 4 7 -7 -8 -9 11 -11 -12 13 -14 -15 -16
leaf_value=0.00079789447642826961 -0.0015720648596308194 -0.00069487443651625983 0.0002629613756818864 -0.0002611251350936405 -0.003585631524013947 -0.0036706254882223834 0.0011302679290218678 -0.0011092212496927076 -0.0026046085122964275 0.00069641398058067927 0.0011127168654376249 -0.0013049063350938663 0.00025483420167733977 -0.0022975479211625417 -0.0004269701280435502
leaf_weight=92158 37052 57990 608606 219727 12879 30906 96057 65386 97263 12955 480812 95305 267397 74672 37710
leaf_count=92158 37052 57990 608606 219727 12879 30906 96057 65386 97263 12955 480812 95305 267397 74672 37710
internal_value=0 -0.00070521 0.000617345 -5.55073e-05 -0.000592577 -0.00204708 0.000323695 -0.00152003 -0.00188809 -0.000979736 0.000970137 -0.00205717 8.48532e-05 -0.00174243 0.000440441
internal_weight=2.28688e+06 1.06759e+06 1.21929e+06 719436 297992 348153 421444 78265 317247 50007 610680 267240 325387 169977 129868
internal_count=2286875 1067589 1219286 719436 297992 348153 421444 78265 317247 50007 610680 267240 325387 169977 129868
is_linear=0
shrinkage=0.0472


Tree=2
num_leaves=16
num_cat=0
split_feature=40 40 18 23 38 16 38 9 18 23 30 39 17 30 16
split_gain=408.304 377.461 107.651 61.1168 59.379 39.4008 34.2261 33.7633 30.5276 27.7672 23.5394 22.7649 21.7939 17.874 15.8422
threshold=0.027098481543362144 0.027126425877213482 -1.9352617859840391 -0.13402687013149259 1.0000000180025095e-35 1.5396038293838503 -0.0081037404015660269 -1.3634625077247617 -0.86736458539962757 0.81748345494270336 0.24578268826007846 1.8329166173934939 0.028907170519232753 -0.24453708529472348 2.1882581710815434
decision_type=2 2 2 2 2 2 2 2 2 2 2 2 2 2 2
left_child=3 2 7 8 6 -6 14 10 -1 11 -2 -4 -7 -5 -3
right_child=1 4 9 13 5 12 -8 -9 -10 -11 -12 -13 -14 -15 -16
leaf_value=0.00053291158199988498 -0.0016556582545613333 0.00016048366587073027 -0.0024180797339693029 -0.0001074190532668952 -0.00029885190425971099 -0.0033041362890909626 0.0010872794830504497 0.00089529857455405537 0.0012103149902154612 -0.00082417267748462837 0.00062385588249128966 -0.0040324731651705803 -0.001146547771511497 0.00043532179021866884 -0.001171181211564563
leaf_weight=258568 43526 303313 219779 201604 240563 13994 96146 27088 352489 22732 12963 21917 43639 406610 21270
leaf_count=258568 43526 303313 219779 201604 240563 13994 96146 27088 352489 22732 12963 21917 43639 406610 21270
internal_value=3.68519e-07 -0.000673836 -0.00194986 0.000590526 -5.58225e-05 -0.000565613 0.00030495 -0.000469739 0.000924063 -0.00241677 -0.00112845 -0.00256557 -0.00167486 0.00025504 7.24777e-05
internal_weight=2.2862e+06 1.06693e+06 348005 1.21927e+06 718925 298196 420729 83577 611057 264428 56489 241696 57633 608214 324583
internal_count=2286201 1066930 348005 1219271 718925 298196 420729 83577 611057 264428 56489 241696 57633 608214 324583
is_linear=0
shrinkage=0.0472


Tree=3
num_leaves=16
num_cat=0
split_feature=40 40 18 41 23 45 16 33 9 18 18 16 10 10 11
split_gain=367.735 344.801 97.03 57.9406 55.6059 51.7371 44.0723 31.3619 30.812 27.2664 21.0308 19.1972 17.3713 20.8502 14.9745
threshold=0.027098481543362144 0.027126425877213482 -1.9352617859840391 0.028825938701629642 -0.09963377937674521 1.6201015710830691 0.89095264673233043 -1.2980377078056333 -1.3634625077247617 -0.83616977930068959 -1.9352617859840391 -0.85718959569931019 -0.0054593216627836219 1.0000000180025095e-35 1.0000000180025095e-35
decision_type=2 2 2 2 2 2 2 2 2 2 2 2 2 2 2
left_child=4 2 8 6 9 11 10 -5 -2 -1 -3 -4 -9 -14 -6
right_child=1 3 5 7 14 -7 -8 12 -10 -11 -12 -13 13 -15 -16
leaf_value=0.00051725316171941538 -0.0010809835473626953 -0.0018101891770588442 -0.0027939484398918578 -0.00057219248701976958 0 -0.0046435177085494559 -0.0022776939470255907 -4.3973719608848293e-05 0.00085413763814840905 0.0011466568116670847 6.4194031568656871e-05 -0.0018498368240941572 0.001212241384838381 0.00029761821065973877 0.00047502376930321026
leaf_weight=275314 56455 17035 67969 112328 303573 19616 40127 193973 27013 351396 60348 177079 74737 220508 289783
leaf_count=275314 56455 17035 67969 112328 303573 19616 40127 193973 27013 351396 60348 177079 74737 220508 289783
internal_value=5.22661e-07 -0.00063929 -0.0018586 -4.86222e-05 0.000560355 -0.00230133 -0.00100745 0.000138308 -0.000451917 0.00087054 -0.000345591 -0.00211274 0.000301924 0.000529954 0.000232337
internal_weight=2.28725e+06 1.06719e+06 348132 719056 1.22007e+06 264664 117510 601546 83468 626710 77383 245048 489218 295245 593356
internal_count=2287254 1067188 348132 719056 1220066 264664 117510 601546 83468 626710 77383 245048 489218 295245 593356
is_linear=0
shrinkage=0.0472


Tree=4
num_leaves=16
num_cat=0
split_feature=40 40 18 41 45 16 38 30 40 18 39 18 39 38 16
split_gain=334.932 310.215 87.789 52.8769 45.3996 39.5956 37.3664 28.1244 22.1998 21.9789 21.2332 20.1168 19.985 18.8915 17.5426
threshold=0.027098481543362144 0.027126425877213482 -1.9352617859840391 0.028825938701629642 1.6201015710830691 0.89095264673233043 -1.0000000180025095e-35 0.16159337759017947 -0.63305544853210438 -1.0391990542411802 1.4995055198669436 -1.9352617859840391 1.8329166173934939 -0.0081037404015660269 -0.30880829691886896
decision_type=2 2 2 2 2 2 2 2 2 2 2 2 2 2 2
left_child=8 2 7 5 14 11 13 -2 9 -1 -7 -3 -8 -5 -4
right_child=1 3 4 6 -6 10 12 -9 -10 -11 -12 -13 -14 -15 -16
leaf_value=0.00035620643426381433 -0.0010398391653747704 -0.0017631608740851057 -0.0024866130014154658 0.0002309678555053774 -0.0043810602165536257 -0.001199756277162758 -8.8817071640599906e-05 0.00079949598280425747 0.00034595620780171086 0.0009724514418792947 -0.00341165444307414 6.1055656148874875e-05 -0.0011074553604872655 0.0010166794867498762 -0.0016675856092571383
leaf_weight=202974 55823 17234 102748 266959 19657 22671 186632 27574 656042 360523 17504 60534 55956 92138 142475
leaf_count=202974 55823 17234 102748 266959 19657 22671 186632 27574 656042 360523 17504 60534 55956 92138 142475
internal_value=-1.09885e-06 -0.000611544 -0.00176792 -5.15583e-05 -0.00218861 -0.000965588 0.000127237 -0.000428894 0.000533256 0.000750897 -0.00216974 -0.000340375 -0.000324764 0.000433232 -0.00201177
internal_weight=2.28744e+06 1.0679e+06 348277 719628 264880 117943 601685 83397 1.21954e+06 563497 40175 77768 242588 359097 245223
internal_count=2287444 1067905 348277 719628 264880 117943 601685 83397 1219539 563497 40175 77768 242588 359097 245223
is_linear=0
shrinkage=0.0472


Tree=5
num_leaves=16
num_cat=0
split_feature=40 40 18 23 41 45 16 38 9 18 23 30 39 39 38
split_gain=311.609 286.208 79.9171 50.4248 49.7049 41.5295 38.0615 33.4597 27.6221 21.9054 19.9257 19.1906 19.0144 18.4997 18.3978
threshold=0.027098481543362144 0.027126425877213482 -1.9352617859840391 0.44595400989055639 0.028825938701629642 1.6201015710830691 1.1680084466934206 0.059280361980199821 -1.3634625077247617 -0.89864704012870777 0.81748345494270336 0.2858834713697434 1.6688059568405154 1.4995055198669436 1.0000000180025095e-35
decision_type=2 2 2 2 2 2 2 2 2 2 2 2 2 2 2
left_child=3 2 8 9 6 10 -3 -6 11 -1 -4 -2 -9 -8 -11
right_child=1 4 5 -5 7 -7 13 12 -10 14 -12 -13 -14 -15 -16
leaf_value=0.00041899282604141282 -0.0014764512710007736 -0.00041964980726056598 -0.0020669964331691739 5.4785198663854822e-05 0.00040227496068655189 -0.0041992871660216872 -0.0012177617497921881 -5.8707682898670255e-05 0.00081433055766483677 0.0011561662118342957 -0.00056593522601317155 0.00062051759915557781 -0.0010204749216594106 -0.0035317240298096894 0.00058192686395053879
leaf_weight=337482 44353 85958 222795 370010 368902 19656 16431 169643 26968 292832 22100 12271 63023 15229 219910
leaf_count=337482 44353 85958 222795 370010 368902 19656 16431 169643 26968 292832 22100 12271 63023 15229 219910
internal_value=9.21931e-08 -0.000588828 -0.00169973 0.000515407 -5.07272e-05 -0.00210193 -0.000938332 0.000122442 -0.000424005 0.00071559 -0.00193251 -0.0010179 -0.000320248 -0.00233877 0.000910346
internal_weight=2.28756e+06 1.06733e+06 348143 1.22023e+06 719186 264551 117618 601568 83592 850224 244895 56624 232666 31660 512742
internal_count=2287563 1067329 348143 1220234 719186 264551 117618 601568 83592 850224 244895 56624 232666 31660 512742
is_linear=0
shrinkage=0.0472


Tree=6
num_leaves=16
num_cat=0
split_feature=40 40 23 41 45 16 38 9 16 39 23 30 38 38 9
split_gain=277.252 258.418 46.7358 44.0532 39.1946 34.3113 30.4766 17.678 17.4553 17.1258 15.3383 15.2026 14.9753 14.7623 14.2763
threshold=0.027098481543362144 0.027126425877213482 -0.16716435551643369 0.028825938701629642 2.3677372932434086 0.89095264673233043 0.059280361980199821 -2.3005290031433101 1.9447885155677798 1.4995055198669436 0.81748345494270336 -0.24453708529472348 -0.0081037404015660269 1.0828500986099245 -2.3005290031433101
decision_type=2 2 2 2 2 2 2 2 2 2 2 2 2 2 2
left_child=2 4 14 5 10 7 12 -3 -8 -7 -2 -4 -5 -11 -1
right_child=1 3 11 6 -6 9 8 -9 -10 13 -12 -13 -14 -15 -16
leaf_value=0.00033811068351669363 -0.001615783147115115 -0.0016307051115418058 -0.00013053732446230673 0.00019778919254807595 -0.0043669513407355656 -0.0011236973229846485 -0.00017041716472024723 8.3022806316141641e-05 -0.0015642009872465874 -0.0024202761621825177 -0.00044986166382924095 0.00036340537937799692 0.00087171141749390626 -0.0059898249507623867 0.00090554949568590439
leaf_weight=127067 308958 17170 206878 266445 11219 22733 210335 60170 22204 14316 27987 418450 102164 3319 467642
leaf_count=127067 308958 17170 206878 266445 11219 22733 210335 60170 22204 14316 27987 418450 102164 3319 467642
internal_value=-8.86301e-07 -0.000556686 0.000485016 -4.51528e-05 -0.00161216 -0.000880373 0.000118013 -0.000294579 -0.00030455 -0.00199665 -0.00151964 0.000199624 0.000385218 -0.00310775 0.000784705
internal_weight=2.28706e+06 1.06702e+06 1.22004e+06 718856 348164 117708 601148 77340 232539 40368 336945 625328 368609 17635 594709
internal_count=2287057 1067020 1220037 718856 348164 117708 601148 77340 232539 40368 336945 625328 368609 17635 594709
is_linear=0
shrinkage=0.0472


Tree=7
num_leaves=16
num_cat=0
split_feature=23 2 2 18 39 45 24 9 45 23 30 18 34 38 11
split_gain=125.251 82.9581 248.003 72.0398 35.4231 31.6492 27.8117 22.558 19.807 17.8258 17.0986 15.5312 15.1454 14.4012 13.566
threshold=-0.56768426299095143 -1.0000000180025095e-35 0.0014565984602086248 -1.9352617859840391 1.4995055198669436 1.8109564185142519 0.26044690608978277 -1.3634625077247617 0.019284591078758243 0.74295049905776989 0.2858834713697434 -0.74144613742828358 -1.3382640480995176 1.0000000180025095e-35 0.48091965913772589
decision_type=2 2 2 2 2 2 2 2 2 2 2 2 2 2 2
left_child=6 8 3 7 13 9 11 10 -2 -5 -3 -1 -8 -4 -10
right_child=1 2 4 5 -6 -7 12 -9 14 -11 -12 -13 -14 -15 -16
leaf_value=0.00045176877365851108 0.00043929429450786093 -0.0012817869518901119 0.00048054792236668325 -0.0019332099484879119 -0.0009569212130499335 -0.0039423756903393774 -0.00089773508470909042 0.0008251786948776696 -0.00019257909413563371 -0.00064835500506939833 0.00070616798881966032 0.00099471868051978734 0.0002544252702606387 -1.2098368665168297e-05 0.00055651431024201397
leaf_weight=220953 329233 44266 221531 210721 67750 16385 32160 26141 309961 27808 12153 255805 121023 325597 65103
leaf_count=220953 329233 44266 221531 210721 67750 16385 32160 26141 309961 27808 12153 255805 121023 325597 65103
internal_value=-5.87479e-07 -0.000216102 -0.000503396 -0.00153153 6.05289e-05 -0.00192416 0.000565811 -0.000316359 0.00017205 -0.00178442 -0.000849424 0.000743587 1.09872e-05 0.000186954 -6.19257e-05
internal_weight=2.28659e+06 1.65665e+06 952352 337474 614878 254914 629941 82560 704297 238529 56419 476758 153183 547128 375064
internal_count=2286590 1656649 952352 337474 614878 254914 629941 82560 704297 238529 56419 476758 153183 547128 375064
is_linear=0
shrinkage=0.0472


Tree=8
num_leaves=16
num_cat=0
split_feature=40 40 18 23 41 45 16 38 9 18 38 41 9 23 39
split_gain=231.203 213.902 65.9046 42.6086 39.0341 32.5149 29.625 26.4598 23.3518 19.7215 17.4211 25.0627 18.1937 16.2905 15.9913
threshold=0.027098481543362144 0.027126425877213482 -1.9352617859840391 0.55534180998802196 0.028825938701629642 1.8109564185142519 1.1680084466934206 -1.0000000180025095e-35 -1.3634625077247617 -0.89864704012870777 0.059280361980199821 0.028817648068070415 -0.25251202285289759 0.81748345494270336 1.6688059568405154
decision_type=2 2 2 2 2 2 2 2 2 2 2 2 2 2 2
left_child=3 2 8 9 6 13 -3 -6 -2 -1 11 -11 -13 -4 -9
right_child=1 4 5 -5 7 -7 -8 14 -10 10 -12 12 -14 -15 -16
leaf_value=0.00033848819366034906 -0.00085868182233901549 -0.00036959640966038079 -0.0018196400344043838 -1.0738433617327384e-05 0.0003680443509813508 -0.0039002051617433448 -0.0020599258062253879 -3.5336316350370448e-05 0.00082497268176856217 0.0012005365579314609 0.00046969309694136366 0.0011206829572108831 -0.00071443155514862506 -0.00046696899800269476 -0.00090066110008514208
leaf_weight=350509 56349 85918 225763 332786 359492 16108 31839 176891 27096 267270 219087 20512 29067 22271 65388
leaf_count=350509 56349 85918 225763 332786 359492 16108 31839 176891 27096 267270 219087 20512 29067 22271 65388
internal_value=0 -0.000507415 -0.00146889 0.000443976 -4.26156e-05 -0.00183436 -0.000828707 0.000110835 -0.000309168 0.000614944 0.000795309 0.00101971 4.01903e-05 -0.00169914 -0.000269855
internal_weight=2.28635e+06 1.06712e+06 347587 1.21923e+06 719528 264142 117757 601771 83445 886445 535936 316849 49579 248034 242279
internal_count=2286346 1067115 347587 1219231 719528 264142 117757 601771 83445 886445 535936 316849 49579 248034 242279
is_linear=0
shrinkage=0.0472


Tree=9
num_leaves=16
num_cat=0
split_feature=40 40 18 23 34 45 41 9 18 41 16 46 23 40 40
split_gain=213.698 196.264 59.0519 38.5765 35.6895 29.2844 22.6459 20.3078 18.8737 17.7161 15.8068 14.5363 12.9661 12.5684 12.4862
threshold=0.027098481543362144 0.027126425877213482 -1.9352617859840391 -0.16716435551643369 -1.0674320459365843 1.3424313068389895 0.028825938701629642 -1.3634625077247617 -0.83616977930068959 0.028825938701629642 -0.67326000332832325 -0.4395123273134231 -0.033904077485203736 1.146311938762665 1.4166376590728762
decision_type=2 2 2 2 2 2 2 2 2 2 2 2 2 2 2
left_child=3 2 7 8 6 10 14 11 -1 -6 -4 -2 -11 -8 -3
right_child=1 4 5 -5 9 -7 13 -9 -10 12 -12 -13 -14 -15 -16
leaf_value=0.00039762659841807826 -0.0014336591388178857 -0.00088625561030013277 -0.0022011114205878622 0.00016730149139111667 -0.00045661252062071512 -0.0032555502691757657 0.0001366627176749484 0.00075033387501590105 0.00093534464742145256 0.000475711586455897 -0.0013400995661613634 0.00010660762389049553 -3.675428621428662e-05 -0.00075031706223879302 -0.0029465438322925216
leaf_weight=261842 34100 14069 67738 624953 90281 26293 58615 27032 332841 269198 170963 22314 184638 89087 13017
leaf_count=261842 34100 14069 67738 624953 90281 26293 58615 27032 332841 269198 170963 22314 184638 89087 13017
internal_value=0 -0.000487807 -0.00140716 0.000426737 -4.18782e-05 -0.00175215 -0.00062888 -0.000308763 0.000698983 0.000146267 -0.00158547 -0.000820393 0.000266714 -0.000396767 -0.00188555
internal_weight=2.28698e+06 1.06734e+06 348440 1.21964e+06 718905 264994 174788 83446 594683 544117 238701 56414 453836 147702 27086
internal_count=2286981 1067345 348440 1219636 718905 264994 174788 83446 594683 544117 238701 56414 453836 147702 27086
is_linear=0
shrinkage=0.0472


Tree=10
num_leaves=16
num_cat=0
split_feature=40 40 23 41 45 16 35 9 39 15 15 25 25 23 9
split_gain=193.053 177.345 37.6443 33.1101 30.8936 27.9081 23.3207 15.3715 15.1178 14.9423 47.8323 13.1754 47.6309 13.1068 12.1416
threshold=0.027098481543362144 0.027126425877213482 0.55534180998802196 0.028825938701629642 2.3677372932434086 0.89095264673233043 -1.4586643576622007 -2.3005290031433101 1.4995055198669436 1.0000000180025095e-35 -0.0053125550039112559 0.010428293142467739 -1.0000000180025095e-35 0.81748345494270336 -0.10896843299269675
decision_type=2 2 2 2 2 2 2 2 2 2 2 2 2 2 2
left_child=2 4 9 5 13 7 -5 -3 -7 10 11 12 -1 -2 -9
right_child=1 3 -4 6 -6 8 -8 14 -10 -11 -12 -13 -14 -15 -16
leaf_value=0.00039453386163180646 -0.0013468664897720434 -0.0014884344790795515 -2.3119008029940269e-05 -0.00059578587194126446 -0.0037915460263646932 -0.00095433771619589337 0.00022418982488858755 0.00091571339817347441 -0.0028199994651011608 0.00032102682620224884 0.0015574543191938929 0.00080497345816825351 -0.0030173804860152897 -0.00027131170384811233 -0.00044327676368521288
leaf_weight=242245 308776 17075 332981 90957 11171 22761 510307 24851 17568 345186 118824 170337 9452 28092 35472
leaf_count=242245 308776 17075 332981 90957 11171 22761 510307 24851 17568 345186 118824 170337 9452 28092 35472
internal_value=-1.62853e-06 -0.00046534 0.000404075 -4.16384e-05 -0.00133995 -0.000765696 9.97552e-05 -0.000237592 -0.00177321 0.000564877 0.000720072 0.000483731 0.000265389 -0.00125787 0.000112792
internal_weight=2.28606e+06 1.06703e+06 1.21902e+06 718991 348039 117727 601264 77398 40329 886044 540858 422034 251697 336868 60323
internal_count=2286055 1067030 1219025 718991 348039 117727 601264 77398 40329 886044 540858 422034 251697 336868 60323
is_linear=0
shrinkage=0.0472


Tree=11
num_leaves=16
num_cat=0
split_feature=40 40 18 38 23 45 39 38 30 18 40 9 23 39 18
split_gain=175.323 159.097 53.427 34.3569 32.0934 27.4838 24.1943 21.6794 19.6041 15.9446 14.8259 13.7404 11.6904 11.5993 10.9963
threshold=0.027098481543362144 0.027126425877213482 -1.9352617859840391 -1.0000000180025095e-35 0.55534180998802196 1.6201015710830691 1.6688059568405154 -0.0081037404015660269 0.16159337759017947 -1.0016950964927671 -0.59949418902397145 -1.1250175237655637 0.81748345494270336 1.6688059568405154 2.3151654005050664
decision_type=2 2 2 2 2 2 2 2 2 2 2 2 2 2 2
left_child=4 2 8 7 9 12 -5 13 11 -1 -11 -2 -4 -3 -8
right_child=1 3 5 6 -6 -7 14 -9 -10 10 -12 -13 -14 -15 -16
leaf_value=0.00025499910072634762 -0.0011650423607981373 0.00022876826091304162 -0.0015641553271739212 -0.00017405194245513736 -8.6532907853822674e-06 -0.0033105748569468882 -0.00083301306593309315 0.00085577558606904217 0.00079807440624584411 0.00090675189803428357 0.00042841323529161707 0.00053974670238986808 -0.00041278617207571511 -0.00039279848286643182 -0.0021838132958075032
leaf_weight=302808 41887 230750 223173 219666 332863 19560 60516 96151 27649 304912 279187 13855 22166 94064 17736
leaf_count=302808 41887 230750 223173 219666 332863 19560 60516 96151 27649 304912 279187 13855 22166 94064 17736
internal_value=-5.90444e-07 -0.00044252 -0.0012705 -4.10423e-05 0.000385863 -0.00159863 -0.000429187 0.000233102 -0.000225318 0.000534188 0.000678522 -0.000737136 -0.00146109 4.80482e-05 -0.00114234
internal_weight=2.28694e+06 1.06717e+06 348290 718883 1.21977e+06 264899 297918 420965 83391 886907 584099 55742 245339 324814 78252
internal_count=2286943 1067173 348290 718883 1219770 264899 297918 420965 83391 886907 584099 55742 245339 324814 78252
is_linear=0
shrinkage=0.0472


Tree=12
num_leaves=16
num_cat=0
split_feature=40 40 38 23 16 45 30 38 46 39 16 38 38 9 16
split_gain=158.058 146.005 31.4389 30.6062 27.858 27.1132 14.1755 13.5676 11.5794 11.3025 10.5927 10.5466 30.5126 11.9582 10.4183
threshold=0.027098481543362144 0.027126425877213482 0.12135742232203485 -0.26201815903186793 1.9447885155677798 2.3677372932434086 -0.43062864243984217 -0.0081037404015660269 0.026079782284796241 0.077205788344144835 2.1882581710815434 -1.0000000180025095e-35 -0.0081037404015660269 -1.0337827205657957 0.22337754070758822
decision_type=2 2 2 2 2 2 2 2 2 2 2 2 2 2 2
left_child=3 5 7 11 -4 9 8 10 -5 -2 -3 12 13 -1 -8
right_child=1 2 4 6 -6 -7 14 -9 -10 -11 -12 -13 -14 -15 -16
leaf_value=8.8885192466053579e-05 -0.00093903280434218608 0.00012235370352125228 -0.00027334565777924126 -3.7280862947885366e-05 -0.0018704474188259268 -0.0035129418946481189 0.00039135683962473024 0.00063686962381697288 -0.0010772630796782503 -0.0015253077582243835 -0.00096983799201723103 0.00039434023642594796 0.001660299410115369 0.00079909834480848562 -0.0001609807715511879
leaf_weight=82142 225274 303792 245853 151845 27093 11126 398925 121095 28410 112012 21130 239473 72812 151982 93341
leaf_count=82142 225274 303792 245853 151845 27093 11126 398925 121095 28410 112012 21130 239473 72812 151982 93341
internal_value=1.13651e-06 -0.000418146 -3.35196e-05 0.000368478 -0.000432778 -0.00121115 0.00015483 0.000210296 -0.00020252 -0.00113445 5.05914e-05 0.000631006 0.000814884 0.000550923 0.000286154
internal_weight=2.2863e+06 1.06738e+06 718963 1.21893e+06 272946 348412 672521 446017 180255 337286 324922 546409 306936 234124 492266
internal_count=2286305 1067375 718963 1218930 272946 348412 672521 446017 180255 337286 324922 546409 306936 234124 492266
is_linear=0
shrinkage=0.0472


Tree=13
num_leaves=16
num_cat=0
split_feature=40 40 18 33 23 45 41 39 9 18 16 16 10 40 46
split_gain=144.025 130.473 49.0292 29.1725 28.8736 23.1622 18.6998 17.9466 17.0875 15.7036 15.5081 13.9073 13.2973 13.1425 12.8363
threshold=0.027098481543362144 0.027126425877213482 -1.9352617859840391 -1.2980377078056333 0.26112315058708196 1.6201015710830691 0.028825938701629642 1.4995055198669436 -1.0767419338226316 -0.83616977930068959 0.89095264673233043 -0.57794609665870655 -0.026572091504931446 -0.59949418902397145 -0.4395123273134231
decision_type=2 2 2 2 2 2 2 2 2 2 2 2 2 2 2
left_child=4 2 8 7 9 11 10 -3 14 -1 -5 -4 -8 -11 -2
right_child=1 3 5 6 -6 -7 12 -9 -10 13 -12 -13 -14 -15 -16
leaf_value=0.00027710761427350214 -0.0011943466789532549 -0.0002508494080203189 -0.0017633782029283247 -7.4480899445731577e-05 4.0446642442972768e-05 -0.0030399265915015124 -8.493048841441502e-05 -0.001394742224062503 0.00082367408889383298 0.00095581858701702992 -0.0013474420036329595 -0.0010352723420667474 0.00041857275903426613 0.00043788401691915551 0.00024986455265149768
leaf_weight=339095 34362 83915 102697 65558 437869 19572 190797 48640 26841 227971 31900 142247 298814 213977 22426
leaf_count=339095 34362 83915 102697 65558 437869 19572 190797 48640 26841 227971 31900 142247 298814 213977 22426
internal_value=-2.66231e-06 -0.000402987 -0.00115313 -3.97472e-05 0.000347833 -0.00146817 0.000102714 -0.000672401 -0.000153835 0.000519862 -0.000493604 -0.00134154 0.000221891 0.000705588 -0.000619988
internal_weight=2.28668e+06 1.06777e+06 348145 719624 1.21891e+06 264516 587069 132555 83629 781043 97458 244944 489611 441948 56788
internal_count=2286681 1067769 348145 719624 1218912 264516 587069 132555 83629 781043 97458 244944 489611 441948 56788
is_linear=0
shrinkage=0.0472


Tree=14
num_leaves=16
num_cat=0
split_feature=23 39 47 47 18 26 46 20 23 47 47 16 22 9 22
split_gain=75.1087 49.8979 36.8477 100.257 44.0772 18.5896 15.1209 12.5529 11.8605 11.5854 16.7444 11.3448 10.3039 14.455 10.2937
threshold=-0.56768426299095143 1.8329166173934939 1.0000000180025095e-35 0.00047524155525024986 -1.9352617859840391 1.3261201381683352 -0.55368092656135548 0.88962140679359447 0.81748345494270336 -1.0000000180025095e-35 0.00047524155525024986 -1.0550009906291959 0.18785244226455691 -2.3005290031433101 0.028356268070638183
decision_type=2 2 2 2 2 2 2 2 2 2 2 2 2 2 2
left_child=5 2 -2 4 6 12 -4 -5 11 -3 -11 -6 14 -14 -1
right_child=1 9 3 7 8 -7 -8 -9 -10 10 -12 -13 13 -15 -16
leaf_value=0.00049215509276929819 0.0001932886537671054 -0.00051126050093700762 -0.00071746291118209482 0.00021268311074883948 -0.0023539168276275084 -0.00043496350364010728 0.00064480554022541272 -0.00028353796543928656 -0.00025123832379729565 -0.0022587143299180289 -0.00084926219862769311 -0.0012794197110107921 -0.00061216055188369678 0.00043875593841127928 0.0010154392259222344
leaf_weight=292780 627575 62642 33133 429237 25669 49319 40095 154144 22116 30233 51875 180071 37383 130678 119467
leaf_count=292780 627575 62642 33133 429237 25669 49319 40095 154144 22116 30233 51875 180071 37383 130678 119467
internal_value=3.24809e-06 -0.00016342 -8.3105e-05 -0.000279483 -0.000979036 0.000442179 2.52552e-05 8.11698e-05 -0.0013028 -0.00100072 -0.00137124 -0.0014147 0.00051713 0.000203596 0.000644379
internal_weight=2.28642e+06 1.65679e+06 1.51204e+06 884465 301084 629627 73228 583381 227856 144750 82108 205740 580308 168061 412247
internal_count=2286417 1656790 1512040 884465 301084 629627 73228 583381 227856 144750 82108 205740 580308 168061 412247
is_linear=0
shrinkage=0.0472


Tree=15
num_leaves=16
num_cat=0
split_feature=40 40 18 41 23 16 45 10 39 9 9 18 38 38 41
split_gain=121.753 107.357 42.117 26.5373 25.0831 22.7827 20.9715 18.3608 16.866 15.6323 14.5334 14.195 12.7494 37.2085 16.0387
threshold=0.027098481543362144 0.027126425877213482 -1.9352617859840391 0.028825938701629642 0.55534180998802196 0.89095264673233043 0.7612142562866212 -0.18416234850883481 1.8329166173934939 1.0000000180025095e-35 -1.3634625077247617 -1.9352617859840391 1.0000000180025095e-35 -0.0081037404015660269 0.028817648068070415
decision_type=2 2 2 2 2 2 2 2 2 2 2 2 2 2 2
left_child=4 2 10 5 12 11 9 8 -5 -4 -2 -3 13 14 -1
right_child=1 3 6 7 -6 -7 -8 -9 -10 -11 -12 -13 -14 -15 -16
leaf_value=0.00052633200315719533 -0.00055630607362455546 -0.0014155170274024842 -0.001423720690027057 -1.750905223255025e-05 -2.793358166086811e-05 -0.0015998865532236696 -0.002203728410694954 0.00027823186037190196 -0.00098472593983874859 -0.00056452981010683451 0.00077143065953428648 0.0001240778772561208 0.00024464619293630528 0.0013362607176189477 -0.00025635507298684378
leaf_weight=314803 56589 17040 141126 156118 333011 40244 51228 391137 54310 72505 27110 60485 380858 119471 71153
leaf_count=314803 56589 17040 141126 156118 333011 40244 51228 391137 54310 72505 27110 60485 380858 119471 71153
internal_value=-1.52108e-06 -0.000369598 -0.00104948 -3.9829e-05 0.000320661 -0.000687957 -0.00134122 8.66787e-05 -0.000268271 -0.00113323 -0.000123453 -0.000211456 0.000451902 0.000607612 0.000381437
internal_weight=2.28719e+06 1.06789e+06 348558 719334 1.2193e+06 117769 264859 601565 210428 213631 83699 77525 886285 505427 385956
internal_count=2287188 1067892 348558 719334 1219296 117769 264859 601565 210428 213631 83699 77525 886285 505427 385956
is_linear=0
shrinkage=0.0472


Tree=16
num_leaves=16
num_cat=0
split_feature=40 40 16 23 45 26 30 41 24 23 39 23 15 15 15
split_gain=111.917 97.5741 25.812 23.6749 21.0852 18.2531 12.4668 11.2786 11.1582 10.1087 9.30116 9.13283 9.06263 14.8002 11.0448
threshold=0.027098481543362144 0.027126425877213482 2.1882581710815434 -0.26201815903186793 2.3677372932434086 0.58731248974800121 -0.24453708529472348 0.028825938701629642 0.09347072616219522 0.74295049905776989 0.037294542416930206 -0.42303736507892603 0.20330775529146197 -0.0053125550039112559 1.0000000180025095e-35
decision_type=2 2 2 2 2 2 2 2 2 2 2 2 2 2 2
left_child=3 4 5 12 9 11 -5 -7 -4 10 -2 -3 13 -1 -15
right_child=1 2 8 6 -6 7 -8 -9 -10 -11 -12 -13 -14 14 -16
leaf_value=0.00046984266723858642 -0.00082079049230164331 0.00046327052905391011 0.0002895472297252111 -0.00016698484143117995 -0.0030192392059327695 -0.0011115627910695119 0.0002651803667792733 -0.00017150834878365472 -0.0014965799411897176 -0.00014394526350856033 -0.001373252121868549 3.2345359983510607e-05 0.00025272151873813981 0.001474584681720407 0.00052647326438746826
leaf_weight=259172 196749 183984 9648 220963 11232 33956 451903 181173 36414 33456 107358 274038 169426 72418 45523
leaf_count=259172 196749 183984 9648 220963 11232 33956 451903 181173 36414 33456 107358 274038 169426 72418 45523
internal_value=1.72266e-06 -0.000350955 -3.64378e-05 0.000310803 -0.000998807 3.72023e-05 0.000122917 -0.000321001 -0.00111745 -0.000930819 -0.00101662 0.000205956 0.000541689 0.00067089 0.00111066
internal_weight=2.28741e+06 1.06801e+06 719213 1.2194e+06 348795 673151 672866 215129 46062 337563 304107 458022 546539 377113 117941
internal_count=2287413 1068008 719213 1219405 348795 673151 672866 215129 46062 337563 304107 458022 546539 377113 117941
is_linear=0
shrinkage=0.0472


Tree=17
num_leaves=16
num_cat=0
split_feature=40 40 18 40 34 39 41 45 16 9 38 38 41 9 9
split_gain=98.5916 71.5846 28.9366 28.0893 25.1265 17.4736 18.2415 17.1771 13.6726 13.487 13.3753 37.5661 13.9537 18.4841 23.7952
threshold=-0.048326024785637849 0.027126425877213482 -1.9352617859840391 0.027098481543362144 -1.0674320459365843 1.4995055198669436 0.10775584354996683 1.6201015710830691 -0.30880829691886896 -1.3634625077247617 -1.0000000180025095e-35 -0.0081037404015660269 0.028817648068070415 -0.25251202285289759 -2.3005290031433101
decision_type=2 2 2 2 2 2 2 2 2 2 2 2 2 2 2
left_child=10 2 9 -4 5 -3 -7 8 -5 -2 11 12 -1 14 -14
right_child=1 4 3 7 -6 6 -8 -9 -10 -11 -12 -13 13 -15 -16
leaf_value=0.00035835830167019455 -0.00044947621374011353 -0.00012916733024481949 6.5898082018246132e-06 -0.0015313170542921746 0.00012545993735106373 -0.0029264904236474981 -0.00077602398321861778 -0.002572936444034351 -0.00081109145261897204 0.00080616965618430137 0.00011779696001007287 0.0010838078792002259 -0.001334591738279446 -0.0011326646184931493 0.00090474894755154117
leaf_weight=426186 64138 102949 48553 102875 544791 10409 61054 19713 142431 27059 493173 156212 14705 35171 37234
leaf_count=426186 64138 102949 48553 102875 544791 10409 61054 19713 142431 27059 493173 156212 14705 35171 37234
internal_value=1.41377e-07 -0.000314976 -0.0008171 -0.00103237 -3.20522e-05 -0.000525365 -0.0010928 -0.00122359 -0.00111412 -7.43353e-05 0.000304967 0.000442492 0.000246853 -0.00029601 0.000266174
internal_weight=2.28665e+06 1.12397e+06 404769 313572 719203 174412 71463 265019 245306 91197 1.16268e+06 669508 513296 87110 51939
internal_count=2286653 1123972 404769 313572 719203 174412 71463 265019 245306 91197 1162681 669508 513296 87110 51939
is_linear=0
shrinkage=0.0472


Tree=18
num_leaves=16
num_cat=0
split_feature=36 36 18 24 24 16 11 8 41 41 9 9 30 9 12
split_gain=52.1839 96.0578 39.7004 35.7659 42.6558 20.3043 17.1179 15.1256 14.1511 21.1018 26.8226 22.9801 13.3578 10.2254 9.38093
threshold=1.0000000180025095e-35 -0.0067719847429543725 -1.9352617859840391 0.019484712742269043 0.019468751735985283 2.1882581710815434 -0.037443624809384339 -0.40276376903057093 0.028817648068070415 0.028825938701629642 0.096844606101512923 -2.3005290031433101 0.20472710579633716 -0.35254645347595209 -1.0000000180025095e-35
decision_type=2 2 2 2 2 2 2 2 2 2 2 2 2 2 2
left_child=1 3 12 4 -1 -5 8 -4 -2 10 11 -10 -3 -13 -8
right_child=6 2 7 5 -6 -7 14 -9 9 -11 -12 13 -14 -15 -16
leaf_value=9.0487738630575773e-05 0.00027249356668132134 -0.00035899369790139786 -0.0015204946507257006 -0.00015582877303122191 0.0011512412231522819 -0.001376937894572778 0.00029636132905354681 -0.00081593457522073469 -0.0017369291149855277 7.0041038209376488e-05 -0.002078763304413742 0.0013013591314492371 0.00088313208890055772 -0.00047554557411788557 0.00072431634275872279
leaf_weight=339610 290805 65020 120418 363988 112663 33182 367977 161279 14245 166468 26817 17479 27408 12035 167712
leaf_count=339610 290805 65020 120418 363988 112663 33182 367977 161279 14245 166468 26817 17479 27408 12035 167712
internal_value=8.31954e-07 -0.000209264 -0.000839465 6.80315e-05 0.000355254 -0.000258458 0.000242759 -0.00111797 5.14962e-05 -0.000218646 -0.000902781 -0.000176546 6.88017e-06 0.000569014 0.000430786
internal_weight=2.28711e+06 1.22357e+06 374125 849443 452273 397170 1.06354e+06 281697 527849 237044 70576 43759 92428 29514 535689
internal_count=2287106 1223568 374125 849443 452273 397170 1063538 281697 527849 237044 70576 43759 92428 29514 535689
is_linear=0
shrinkage=0.0472


Tree=19
num_leaves=16
num_cat=0
split_feature=23 39 2 2 47 47 18 35 16 31 18 39 30 22 10
split_gain=55.4098 38.694 19.2071 20.0058 17.4703 45.6625 31.9187 15.2384 12.071 9.82092 9.80696 12.4947 9.73022 8.86476 8.65235
threshold=-0.56768426299095143 0.61616691946983349 -1.0000000180025095e-35 0.0014565984602086248 -1.0000000180025095e-35 0.00047524155525024986 -1.9352617859840391 -1.4586643576622007 -0.85718959569931019 0.27713450789451605 -0.74144613742828358 0.16499598324298861 0.71019238233566295 0.43559688329696661 -0.48733834922313685
decision_type=2 2 2 2 2 2 2 2 2 2 2 2 2 2 2
left_child=7 4 -3 9 -2 6 12 -1 -8 -4 13 -12 -6 -9 -5
right_child=1 2 3 14 5 -7 8 10 -10 -11 11 -13 -14 -15 -16
leaf_value=-0.0004716857548365289 0.00018587816573605967 -0.00017619700338025347 -0.00080528860778199469 -0.0011310165297819118 -2.6139555781367958e-05 9.5064463896000955e-05 -0.00152992851974993 0.00036454453669214972 -0.00072139311478028334 -0.0019052980482610637 0.00083372328666908645 0.00024973620807239544 0.0014792330128833467 -0.00031331049058449633 -0.00027116839558153478
leaf_weight=43651 531774 158665 31072 36443 49096 500299 60594 187065 135111 46676 207441 136819 11789 55440 95652
leaf_count=43651 531774 158665 31072 36443 49096 500299 60594 187065 135111 46676 207441 136819 11789 55440 95652
internal_value=-2.42285e-08 -0.000143402 -0.000569928 -0.000866511 -2.125e-05 -0.00016708 -0.000679098 0.000376503 -0.000972969 -0.00146879 0.000440003 0.000602314 0.000261704 0.000208617 -0.000510197
internal_weight=2.28759e+06 1.65717e+06 368508 209843 1.28866e+06 756889 256590 630416 195705 77748 586765 344260 60885 242505 132095
internal_count=2287587 1657171 368508 209843 1288663 756889 256590 630416 195705 77748 586765 344260 60885 242505 132095
is_linear=0
shrinkage=0.0472


Tree=20
num_leaves=16
num_cat=0
split_feature=40 40 34 18 23 40 45 18 40 30 16 17 16 23 12
split_gain=77.6477 54.4825 23.3154 21.2809 21.2571 20.9552 15.5025 14.727 13.8386 12.4524 11.991 11.2728 9.70783 9.25862 9.21072
threshold=-0.048326024785637849 0.027126425877213482 -1.0674320459365843 -1.9352617859840391 -0.09963377937674521 0.027098481543362144 1.3424313068389895 -0.83616977930068959 1.2814487218856814 -0.334779143333435 -0.30880829691886896 0.028907170519232753 1.5706397891044619 -0.033904077485203736 0.18562908470630649
decision_type=2 2 2 2 2 2 2 2 2 2 2 2 2 2 2
left_child=4 3 8 9 7 -5 10 -1 -3 -2 -7 12 -10 -4 -6
right_child=1 2 13 5 14 6 -8 -9 11 -11 -12 -13 -14 -15 -16
leaf_value=0.00020514576666272267 -0.0006302751770066651 -3.2711073009266973e-05 0.00028651037814027183 0 0.00018488544748847201 -0.0013338594361109578 -0.0021629052471770433 0.00067517740591962203 -0.0012324974086383137 0.0004718280412638061 -0.00065173479351183735 -0.00062064824589601884 -0.0036386071593477874 -0.0001071334957182117 -0.00023681569218412011
leaf_weight=269671 45788 77322 315797 48793 395875 102118 26214 335422 14386 45434 136224 77110 5326 229021 162530
leaf_count=269671 45788 77322 315797 48793 395875 102118 26214 335422 14386 45434 136224 77110 5326 229021 162530
internal_value=1.86292e-06 -0.000277907 -3.10081e-05 -0.000716087 0.000272222 -0.000900858 -0.00106662 0.000466087 -0.000506675 -7.88309e-05 -0.000945001 -0.000882756 -0.00189563 0.000120613 6.17282e-05
internal_weight=2.28703e+06 1.12353e+06 718962 404571 1.1635e+06 313349 264556 605093 174144 91222 238342 96822 19712 544818 558405
internal_count=2287031 1123533 718962 404571 1163498 313349 264556 605093 174144 91222 238342 96822 19712 544818 558405
is_linear=0
shrinkage=0.0472


Tree=21
num_leaves=16
num_cat=0
split_feature=39 2 2 33 18 38 9 16 8 8 14 16 7 7 45
split_gain=44.0508 24.0636 83.9748 20.3435 19.8994 16.0026 13.2674 11.9668 11.1671 10.6284 10.5633 10.2057 8.91381 31.187 12.7021
threshold=1.4995055198669436 1.0000000180025095e-35 0.0014565984602086248 -1.9471883177757261 -1.9352617859840391 1.0000000180025095e-35 -1.0767419338226316 -0.71623283624649037 0.91779646277427684 0.81169867515563976 -0.071005135774612413 0.05273677688091994 -1.0000000180025095e-35 0.00065282618743367504 0.019284591078758243
decision_type=2 2 2 2 2 2 2 2 2 2 2 2 2 2 2
left_child=1 8 4 -2 6 -4 9 -6 12 -3 -5 -7 -1 14 -14
right_child=3 2 5 10 7 11 -8 -9 -10 -11 -12 -13 13 -15 -16
leaf_value=1.6643970080040405e-05 -0.0016047671803737823 0.00011726816637169758 0.00045096425921657219 -0.00065517252204158149 -0.001455418981252706 0.00014394414341973747 0.00083217419368026386 -0.00071235532142707486 0.00062761319430779106 -0.0010594675092728209 0 -0.00036489272294333309 0.0019001002157655747 0.000117628971651599 0.00067517860321284374
leaf_weight=366862 36591 34995 320914 143022 68698 358831 24436 171730 152001 32857 89037 116200 32189 290736 47732
leaf_count=366862 36591 34995 320914 143022 68698 358831 24436 171730 152001 32857 89037 116200 32189 290736 47732
internal_value=-5.06491e-07 7.49744e-05 -6.95537e-05 -0.000568388 -0.000699403 0.000193446 -0.000107371 -0.000925679 0.000258617 -0.000449209 -0.000403922 1.8983e-05 0.000182248 0.000345527 0.00117157
internal_weight=2.28683e+06 2.01818e+06 1.12866e+06 268650 332716 795945 92288 240428 889520 67852 232059 475031 737519 370657 79921
internal_count=2286831 2018181 1128661 268650 332716 795945 92288 240428 889520 67852 232059 475031 737519 370657 79921
is_linear=0
shrinkage=0.0472


Tree=22
num_leaves=16
num_cat=0
split_feature=40 40 41 41 23 14 35 9 18 40 18 38 41 9 38
split_gain=65.2337 42.6581 23.8284 21.4975 17.9402 16.9995 14.7436 13.9302 13.3189 16.2553 11.8029 10.6028 19.1051 17.9296 10.1303
threshold=-0.094357050955295549 0.027126425877213482 0.42193290591239935 0.028825938701629642 0.67579415440559398 0.28504417836666113 -1.1365086436271665 0.57092344760894786 -1.9352617859840391 0.027098481543362144 -0.89864704012870777 0.059280361980199821 0.028817648068070415 -0.35254645347595209 0.9939137101173402
decision_type=2 2 2 2 2 2 2 2 2 2 2 2 2 2 2
left_child=4 2 8 5 10 7 -5 -3 -2 -10 -1 12 -12 -14 -9
right_child=1 3 -4 6 -6 -7 -8 14 9 -11 11 -13 13 -15 -16
leaf_value=0.00014807568604746036 0.00013005747216942402 -0.00039035912150450086 -0.0012947583231758479 -0.00038621914507190575 -8.556612679487061e-05 0.00040235736040803436 0.00020574478589587778 -0.001220214605890846 -1.8382838996723605e-05 -0.00081426348706311062 0.00083315388375799517 0.00024528400778840828 0.0010260937119332238 -0.00099069223318042163 -0.0032139706469711126
leaf_weight=349577 73055 49583 90741 115938 260350 28011 486007 32761 81256 197823 262311 210534 15457 26687 7138
leaf_count=349577 73055 49583 90741 115938 260350 28011 486007 32761 81256 197823 262311 210534 15457 26687 7138
internal_value=8.78056e-07 -0.000247002 -0.000611467 -2.23172e-05 0.000257205 -0.000606549 9.13407e-05 -0.000924968 -0.000434706 -0.000583374 0.000360692 0.000504563 0.000683085 -0.000245452 -0.00158331
internal_weight=2.28723e+06 1.16231e+06 442875 719438 1.12492e+06 117493 601945 89482 352134 279079 864566 514989 304455 42144 39899
internal_count=2287229 1162313 442875 719438 1124916 117493 601945 89482 352134 279079 864566 514989 304455 42144 39899
is_linear=0
shrinkage=0.0472


Tree=23
num_leaves=16
num_cat=0
split_feature=40 40 41 38 23 40 38 41 18 18 40 8 45 11 9
split_gain=58.7349 36.5504 22.3703 19.3448 16.7021 15.3667 14.6793 14.1616 11.58 11.5596 15.6827 10.3268 10.1409 9.32036 9.16395
threshold=-0.094357050955295549 0.027126425877213482 0.42193290591239935 1.0000000180025095e-35 0.55534180998802196 1.4166376590728762 -0.0081037404015660269 1.3338431119918825 -0.74144613742828358 -1.9352617859840391 0.027098481543362144 1.1816660761833193 2.3677372932434086 -0.27216917276382441 0.90646958351135265
decision_type=2 2 2 2 2 2 2 2 2 2 2 2 2 2 2
left_child=4 2 9 6 8 -5 13 -7 -1 -2 -11 -10 14 -3 -4
right_child=1 3 12 5 -6 7 -8 -9 11 10 -12 -13 -14 -15 -16
leaf_value=0.0001730162602204466 0.00012400014494560205 -0.0002251759529125148 -0.0014170820564984408 -6.2329069489941232e-05 -6.0962467575287147e-05 -0.0019622756432454746 0.00069177236897040458 -0.00051899887789214733 0.00041320282442177411 8.9435994880210658e-06 -0.00076720025197084111 0.0010172495651909626 -0.0026835757383003953 0.00028019350523265555 -0.00034119636283319311
leaf_weight=411079 73190 162680 53438 190485 294969 18498 95944 88943 340941 81280 197502 78369 9809 162315 27286
leaf_count=411079 73190 162680 53438 190485 294969 18498 95944 88943 340941 81280 197502 78369 9809 162315 27286
internal_value=3.52981e-07 -0.000235019 -0.000572535 -2.69305e-05 0.000243462 -0.000318247 0.000178706 -0.000769776 0.000351878 -0.000401339 -0.000540088 0.00052667 -0.00123545 2.65132e-05 -0.00105636
internal_weight=2.28673e+06 1.16137e+06 442505 718865 1.12536e+06 297926 420939 107441 830389 351972 278782 419310 90533 324995 80724
internal_count=2286728 1161370 442505 718865 1125358 297926 420939 107441 830389 351972 278782 419310 90533 324995 80724
is_linear=0
shrinkage=0.0472


Tree=24
num_leaves=16
num_cat=0
split_feature=39 11 26 47 47 18 20 41 27 9 16 45 14 46 46
split_gain=35.4276 21.1846 16.8339 13.4431 36.3154 10.6204 10.0495 9.87158 9.53696 8.9255 8.90138 8.61394 7.81264 7.23114 12.2863
threshold=1.4995055198669436 0.32949198782444006 1.9686564207077029 -1.0000000180025095e-35 0.00047524155525024986 -1.9352617859840391 0.62559616565704357 0.10775584354996683 0.1596595495939255 -1.0000000180025095e-35 1.28556764125824 0.13404049724340442 -0.11808660998940466 0.026079782284796241 0.0261118533089757
decision_type=2 2 2 2 2 2 2 2 2 2 2 2 2 2 2
left_child=1 3 7 13 5 -5 -6 10 -3 -7 -2 -11 -9 -1 -15
right_child=2 8 -4 4 6 9 -8 12 -10 11 -12 -13 -14 14 -16
leaf_value=0.00025913785664109947 -0.00050620581625658296 0.00039726270475375303 -0.0014658683373492702 -0.00014039706568953595 0.00018767368932820546 -0.0012547496092425487 -0.00022773681946993549 -0.0004997599684788504 2.2790796637050763e-05 0.00011882305657605386 -0.0022624936691144288 -0.00094990734497072207 8.8029705231383037e-05 -0.00056858338531946872 0.00016754912721191441
leaf_weight=351820 16911 469556 35869 53873 329118 81446 213977 117976 225688 27722 10847 41306 86898 76666 147414
leaf_count=351820 16911 469556 35869 53873 329118 81446 213977 117976 225688 27722 10847 41306 86898 76666 147414
internal_value=-2.61661e-06 6.50341e-05 -0.000512062 -4.56469e-05 -0.000177825 -0.000714203 2.35764e-05 -0.000363953 0.000276038 -0.000918079 -0.00120133 -0.000517383 -0.000249323 0.0001255 -8.32874e-05
internal_weight=2.28709e+06 2.01859e+06 268501 1.32334e+06 747442 204347 543095 232632 695244 150474 27758 69028 204874 575900 224080
internal_count=2287087 2018586 268501 1323342 747442 204347 543095 232632 695244 150474 27758 69028 204874 575900 224080
is_linear=0
shrinkage=0.0472


Tree=25
num_leaves=16
num_cat=0
split_feature=40 40 20 23 45 29 18 40 18 23 30 16 45 23 16
split_gain=49.9074 32.552 18.1396 15.6154 15.2939 12.1563 11.5306 17.5908 11.0332 11.0304 10.1762 9.33441 10.2533 9.32132 8.65018
threshold=-0.094357050955295549 0.027126425877213482 1.4710325598716738 -0.09963377937674521 2.3677372932434086 -0.77931228280067433 -1.9352617859840391 0.027098481543362144 -0.83616977930068959 0.74295049905776989 0.16159337759017947 -1.0550009906291959 0.34259204566478735 0.069386787712574019 2.1882581710815434
decision_type=2 2 2 2 2 2 2 2 2 2 2 2 2 2 2
left_child=3 4 5 8 6 14 10 -8 -1 11 -2 -9 -13 -7 -3
right_child=1 2 -4 -5 -6 13 7 9 -10 -11 -12 12 -14 -15 -16
leaf_value=0.00016557572534880039 -0.00035339583200088735 -0.00017160255835761386 -0.00073967198979526551 3.9757464072061079e-05 -0.0022056583474941095 0.00035272822988581428 -5.8688514511453543e-06 -0.0017291035537696088 0.00057702147645443877 8.8937411706702712e-05 0.00071060582909454292 -0.0005660331866299724 -0.0012945672731739378 -6.9531200145199265e-05 -0.0013023632876971109
leaf_weight=266000 64697 151872 70361 535221 11942 283638 80720 27964 324982 26882 28973 137200 64211 196260 16852
leaf_count=266000 64697 151872 70361 535221 11942 283638 80720 27964 324982 26882 28973 137200 64211 196260 16852
internal_value=9.36637e-07 -0.000216032 -1.96548e-05 0.000224925 -0.000534517 5.81026e-05 -0.000487596 -0.000616387 0.000392227 -0.000807788 -2.1784e-05 -0.00091389 -0.000799488 0.00017956 -0.000285974
internal_weight=2.28778e+06 1.16157e+06 718983 1.1262e+06 442589 648622 430647 336977 590982 256257 93670 229375 201411 479898 168724
internal_count=2287775 1161572 718983 1126203 442589 648622 430647 336977 590982 256257 93670 229375 201411 479898 168724
is_linear=0
shrinkage=0.0472


Tree=26
num_leaves=16
num_cat=0
split_feature=40 40 20 41 23 41 16 18 18 18 10 16 30 11 41
split_gain=45.0114 33.8287 17.6658 16.9996 14.4274 13.2958 12.5225 12.2818 11.9352 10.832 10.4138 9.42327 9.02564 8.19605 9.25629
threshold=-0.048326024785637849 0.027126425877213482 1.4710325598716738 0.42193290591239935 -0.09963377937674521 0.028825938701629642 0.57293963432312023 -1.9352617859840391 -1.9352617859840391 -0.74144613742828358 -0.2112903147935867 -1.0550009906291959 0.71019238233566295 1.0000000180025095e-35 0.028817648068070415
decision_type=2 2 2 2 2 2 2 2 2 2 2 2 2 2 2
left_child=4 3 5 8 9 6 7 -3 12 -1 -7 -10 -2 14 -6
right_child=1 2 -4 -5 13 10 -8 -9 11 -11 -12 -13 -14 -15 -16
leaf_value=0.00016503301359011363 -8.4571465501402277e-05 -0.0011728632022011654 -0.00072984012523164248 -0.0011292218853738449 -3.7919667957956681e-05 -0.00013967496895065829 -0.0010435040238382029 0.00037901551659104209 -0.0012632429846461124 0.00056595454360725873 0.00029809853143143288 -0.00042466934724487518 0.001357910471715982 0.00021590864427797798 -0.00082933022081109692
leaf_weight=302640 56311 14981 70199 90540 244222 180628 43227 46926 35253 302114 363673 211195 11605 275503 38190
leaf_count=302640 56311 14981 70199 90540 244222 180628 43227 46926 35253 302114 363673 211195 11605 275503 38190
internal_value=0 -0.000212859 -1.83387e-05 -0.000557999 0.000205973 5.82211e-05 -0.000427116 0 -0.000392719 0.000365707 0.000152397 -0.000545601 0.000158639 3.24093e-05 -0.000145782
internal_weight=2.28721e+06 1.12454e+06 719634 404904 1.16267e+06 649435 105134 61907 314364 604754 544301 246448 67916 557915 282412
internal_count=2287207 1124538 719634 404904 1162669 649435 105134 61907 314364 604754 544301 246448 67916 557915 282412
is_linear=0
shrinkage=0.0472


Tree=27
num_leaves=16
num_cat=0
split_feature=34 11 39 41 30 8 18 25 37 46 25 16 3 3 9
split_gain=31.5075 19.4029 16.9991 11.8111 10.2308 8.81869 8.31314 7.63664 6.9399 6.83589 6.0146 5.88462 5.29486 13.6785 5.28425
threshold=-0.51944294571876515 0.37856042385101324 1.4995055198669436 0.10775584354996683 -0.80266147851943959 0.63113054633140575 -0.71033892035484303 -0.57559940218925465 0.57306852936744701 -1.0000000180025095e-35 0.30064070224761968 1.1680084466934206 -1.0000000180025095e-35 0.0080960881896317023 0.6452312469482423
decision_type=2 2 2 2 2 2 2 2 2 2 2 2 2 2 2
left_child=2 4 7 11 9 -6 -7 12 -5 14 -3 -4 -1 -14 -2
right_child=1 10 3 8 5 6 -8 -9 -10 -11 -12 -13 13 -15 -16
leaf_value=-7.3153274940485874e-05 -0.00024926826859166142 0.00024614008458703741 -0.00090440801919559953 -0.00022768126746637818 -5.4559057162329228e-06 8.8362720377437002e-05 0.0007388663836246194 -0.0002826886097886309 -0.0010133203514386369 -0.00075854549818060116 0.00062782401089734349 -0.002902796884951236 0.0017603706320577334 -7.1421209925192795e-05 0.00028964387721695697
leaf_weight=67161 213461 449743 6071 49774 665518 103973 76780 341689 52390 48525 117264 8423 14529 23596 49672
leaf_count=67161 213461 449743 6071 49774 665518 103973 76780 341689 52390 48525 117264 8423 14529 23596 49672
internal_value=-7.49598e-07 9.92594e-05 -0.000307224 -0.000815133 -1.1323e-05 7.36086e-05 0.000365985 -0.000174131 -0.000632876 -0.000242684 0.000325494 -0.00208273 0.00017597 0.000620817 -0.000146651
internal_weight=2.28857e+06 1.72494e+06 563633 116658 1.15793e+06 846271 180753 446975 102164 311658 567007 14494 105286 38125 263133
internal_count=2288569 1724936 563633 116658 1157929 846271 180753 446975 102164 311658 567007 14494 105286 38125 263133
is_linear=0
shrinkage=0.0472


Tree=28
num_leaves=16
num_cat=0
split_feature=40 40 41 16 23 28 41 9 12 12 24 11 0 0 40
split_gain=41.4175 24.8833 17.9552 16.1817 12.733 12.4038 8.75533 9.63806 7.91042 18.4193 7.64114 7.52313 7.4426 27.0672 7.11741
threshold=-0.13762886822223661 0.027126425877213482 0.42193290591239935 2.1882581710815434 -0.16716435551643369 1.4856882691383364 0.067958749830722823 -1.0000000180025095e-35 -1.0000000180025095e-35 0.0062225407455116519 0.019484712742269043 0.28378893435001379 1.0000000180025095e-35 -0.0008967683243099599 0.027098481543362144
decision_type=2 2 2 2 2 2 2 2 2 2 2 2 2 2 2
left_child=4 2 14 5 8 6 11 -8 -1 -10 -5 -3 13 -9 -2
right_child=1 3 -4 10 -6 -7 7 12 9 -11 -12 -13 -14 -15 -16
leaf_value=0.00019316137288502721 -3.2527697636599987e-05 -0.00049371631388094516 -0.0010564479873629235 0.00033243513773639213 4.6427268556816442e-05 -0.00045186048658116821 -2.0430063245867581e-05 0.00036930608203014338 0.0011933754108026536 0.00031264676167910561 -0.0011753187311645029 0.0004206179925134876 0.00022421570456821445 0.0025405357278457954 -0.00046030957661949846
leaf_weight=279624 132352 79116 90254 9108 538500 96737 213061 71196 73178 195281 36957 26584 169711 15697 257738
leaf_count=279624 132352 79116 90254 9108 538500 96737 213061 71196 73178 195281 36957 26584 169711 15697 257738
internal_value=-1.01255e-06 -0.000192447 -0.000455435 -1.62222e-05 0.000209928 4.21092e-05 0.000125569 0.000213188 0.000370144 0.000553613 -0.000872172 -0.000261552 0.00040806 0.000764407 -0.000315767
internal_weight=2.28509e+06 1.19851e+06 480344 718167 1.08658e+06 672102 575365 469665 548083 268459 46065 105700 256604 86893 390090
internal_count=2285094 1198511 480344 718167 1086583 672102 575365 469665 548083 268459 46065 105700 256604 86893 390090
is_linear=0
shrinkage=0.0472


Tree=29
num_leaves=16
num_cat=0
split_feature=40 23 14 39 18 16 41 38 47 47 23 23 40 10 41
split_gain=36.0545 20.3206 15.9874 14.0849 10.0932 10.6502 15.4417 7.84243 7.55275 8.89676 11.3435 7.16364 6.95012 9.6284 7.80839
threshold=-0.56542682647705067 -0.68921980261802662 -0.093520805239677415 1.4995055198669436 -1.0391990542411802 -1.0000000180025095e-35 0.028817648068070415 0.24485472589731219 1.0000000180025095e-35 0.00047524155525024986 0.44595400989055639 -1.2039661407470701 0.18927206099033358 -0.52143001556396473 0.10775584354996683
decision_type=2 2 2 2 2 2 2 2 2 2 2 2 2 2 2
left_child=4 7 3 8 -1 -6 11 -2 -3 10 -10 -7 -5 -14 -15
right_child=1 2 -4 12 5 6 -8 -9 9 -11 -12 -13 13 14 -16
leaf_value=4.4969331149725238e-05 0.00039758845146558479 -3.1348023591199055e-05 -2.9321654792036008e-05 -0.0014756570754624234 0.00060216115943894245 0.0014015115450459904 -0.0011216650376770158 -0.0001317855187888371 -0.00091231637470783381 -0.00018250626835144301 5.770728503326825e-05 0.00016977763746934228 -0.0013068112724440981 -0.0015091067878352925 -0.00011635019573685505
leaf_weight=226415 205254 217640 661682 26903 281471 11874 19945 88732 108033 199091 35157 99253 31698 10534 63614
leaf_count=226415 205254 217640 661682 26903 281471 11874 19945 88732 108033 199091 35157 99253 31698 10534 63614
internal_value=-1.5457e-06 -0.00011832 -0.000195626 -0.000354154 0.000299336 0.000438375 8.48691e-05 0.000237024 -0.000249906 -0.000388197 -0.000672543 0.000303569 -0.000792071 -0.000616031 -0.000317487
internal_weight=2.2873e+06 1.64834e+06 1.35435e+06 692670 638958 412543 131072 293986 559921 342281 143190 111127 132749 105846 74148
internal_count=2287296 1648338 1354352 692670 638958 412543 131072 293986 559921 342281 143190 111127 132749 105846 74148
is_linear=0
shrinkage=0.0472


Tree=30
num_leaves=16
num_cat=0
split_feature=40 40 41 28 41 10 15 15 25 25 41 15 10 9 9
split_gain=32.512 20.9595 16.2427 14.6063 9.36805 8.74236 8.62624 19.4901 10.1244 40.0551 10.3478 10.0286 8.43981 8.33703 9.10575
threshold=-0.13762886822223661 0.027126425877213482 0.42193290591239935 1.1663241982460024 0.067958749830722823 -0.0054593216627836219 0.15142750740051272 -0.0053125550039112559 0.010428293142467739 -1.0000000180025095e-35 0.028817648068070415 -1.0000000180025095e-35 1.0000000180025095e-35 0.72595542669296276 -2.3005290031433101
decision_type=2 2 2 2 2 2 2 2 2 2 2 2 2 2 2
left_child=6 2 -2 4 13 -6 7 8 9 -1 -11 -9 -7 14 -3
right_child=1 3 -4 -5 5 12 -8 11 -10 10 -12 -13 -14 -15 -16
leaf_value=5.9922923699143744e-05 -0.00027540962511404083 -0.0010171811004065798 -0.00097945287666672274 -0.00045042211262653502 -6.118994114106379e-05 0.00079052024993833052 -2.6043377951030189e-06 0.00088355981198314512 0.00037689866989809107 0.00018157297454780732 -0.0034388014440634796 0.00017195545987334852 0.00019999863837603552 -0.0008768444284776957 0.00027804129656857528
leaf_weight=300384 390185 15421 90379 133874 189906 72871 350746 145436 214530 2013 9441 64602 214341 36791 55898
leaf_count=300384 390185 15421 90379 133874 189906 72871 350746 145436 214530 2013 9441 64602 214341 36791 55898
internal_value=2.34069e-06 -0.000166975 -0.000408315 -5.3675e-06 9.60505e-05 0.000186243 0.000189393 0.000281154 0.000127216 -4.38171e-05 -0.00278267 0.000665808 0.00035065 -0.000299834 0
internal_weight=2.28682e+06 1.19967e+06 480564 719102 585228 477118 1.08715e+06 736406 526368 311838 11454 210038 287212 108110 71319
internal_count=2286818 1199666 480564 719102 585228 477118 1087152 736406 526368 311838 11454 210038 287212 108110 71319
is_linear=0
shrinkage=0.0472


Tree=31
num_leaves=16
num_cat=0
split_feature=40 47 47 19 45 9 8 16 41 16 16 23 31 9 11
split_gain=30.3881 17.1919 24.6405 12.0588 11.1949 8.69098 9.15743 10.6771 15.6813 7.59214 7.57161 7.48817 7.56235 7.49175 7.07509
threshold=-0.56542682647705067 -1.0000000180025095e-35 0.00047524155525024986 0.72236195206642162 2.3677372932434086 -2.3005290031433101 1.7119016051292422 0.22337754070758822 0.028817648068070415 2.1882581710815434 2.6872018575668339 0.81748345494270336 1.1718009710311892 0.43300183117389685 0.42846715450286871
decision_type=2 2 2 2 2 2 2 2 2 2 2 2 2 2 2
left_child=5 10 4 -4 11 -1 7 -7 -9 -5 -2 12 13 14 -3
right_child=1 2 3 9 -6 6 -8 8 -10 -11 -12 -13 -14 -15 -16
leaf_value=-6.7474880851110217e-05 9.8054127968188963e-05 -0.00082416589620684189 8.5536282141515218e-05 -0.00028694539856754814 -0.0020284545639579076 0.00038396948555814188 0.00084803508946753919 5.6005534630030171e-05 -0.0018422949270077613 -0.001534591785326988 -0.00088270057967834042 0.00022726540876436249 -0.0013958191934033617 -6.2920113057207273e-05 -0.00024586380489866158
leaf_weight=130471 666115 148035 418765 185419 11206 361766 74461 60682 11485 11656 17966 28086 23266 66873 71073
leaf_count=130471 666115 148035 418765 185419 11206 361766 74461 60682 11485 11656 17966 28086 23266 66873 71073
internal_value=-1.57181e-06 -0.000108774 -0.000237208 -5.72988e-05 -0.00055442 0.000274677 0.000362939 0.000279151 -0.000243071 -0.000361975 7.19475e-05 -0.000504717 -0.00057195 -0.000504075 -0.000637653
internal_weight=2.28732e+06 1.64846e+06 964379 615840 348539 638865 508394 433933 72167 197075 684081 337333 309247 285981 219108
internal_count=2287325 1648460 964379 615840 348539 638865 508394 433933 72167 197075 684081 337333 309247 285981 219108
is_linear=0
shrinkage=0.0472


Tree=32
num_leaves=16
num_cat=0
split_feature=23 40 40 45 9 16 38 30 46 9 9 15 15 38 25
split_gain=27.8869 21.0656 16.2206 11.0604 13.0701 10.1645 10.0766 9.60683 9.23264 10.9479 9.98212 8.20446 13.945 7.2417 8.47004
threshold=-0.60439008474349964 0.027098481543362144 0.027126425877213482 0.64387336373329174 1.0000000180025095e-35 2.6025283336639409 0.24485472589731219 -0.43062864243984217 -0.097671229392290101 0.1472590193152428 -2.3005290031433101 1.0000000180025095e-35 -0.0053125550039112559 -0.0081037404015660269 0.010428293142467739
decision_type=2 2 2 2 2 2 2 2 2 2 2 2 2 2 2
left_child=6 7 3 4 -3 -4 13 8 -2 10 -10 12 -9 14 -1
right_child=1 2 5 -5 -6 -7 -8 11 9 -11 -12 -13 -14 -15 -16
leaf_value=1.6898594759768209e-05 -6.137094361874841e-05 -0.00059233681636432526 -4.9454338531833084e-05 -0.0010193165700324873 0.00013544364473847066 -0.0010729689175051765 2.0459294889340198e-06 0.00014843940591588849 -0.001589814156256296 -0.0021242465745470733 0.00037152391456730439 -5.3228915981456841e-05 0.00083675893959826188 0.00069544888214405885 0.00055876513981725773
leaf_weight=139773 191169 179645 486534 76516 78540 22659 197013 301756 8970 11087 15916 236032 84249 136656 120416
leaf_count=139773 191169 179645 486534 76516 78540 22659 197013 301756 8970 11087 15916 236032 84249 136656 120416
internal_value=7.76729e-07 -9.67373e-05 -0.000263805 -0.000519194 -0.000370052 -9.54724e-05 0.000279174 6.90185e-05 -0.000193227 -0.000887324 -0.000326426 0.000165153 0.000299286 0.000416167 0.000268575
internal_weight=2.28693e+06 1.69307e+06 843894 334701 258185 509193 593858 849179 227142 35973 24886 622037 386005 396845 260189
internal_count=2286931 1693073 843894 334701 258185 509193 593858 849179 227142 35973 24886 622037 386005 396845 260189
is_linear=0
shrinkage=0.0472


Tree=33
num_leaves=16
num_cat=0
split_feature=40 11 47 47 20 18 8 10 18 8 8 22 17 17 18
split_gain=26.2062 15.5741 10.6624 15.077 10.227 9.00517 12.9402 8.67766 8.49997 7.71281 6.79165 6.68824 6.58335 10.148 6.25514
threshold=-0.59949418902397145 0.32949198782444006 1.0000000180025095e-35 0.00047524155525024986 1.0280599594116213 -1.9352617859840391 -0.45906345546245569 -0.94312700629234303 -1.1673957705497739 0.71494492888450634 1.0418540835380556 0.43559688329696661 0.028907170519232753 0.028897282667458061 1.9473993778228762
decision_type=2 2 2 2 2 2 2 2 2 2 2 2 2 2 2
left_child=8 2 7 5 -5 9 -7 -2 11 -4 -10 -1 13 -9 -6
right_child=1 -3 3 4 14 6 -8 12 10 -11 -12 -13 -14 -15 -16
leaf_value=0.00014580642948075484 -0.00049006587972831648 0.00013286858897706893 0.00017514200648397006 -4.4172621114924873e-06 -0.00037388891836274242 -0.0012929215489550531 -0.00045919428923140625 7.3957418012434044e-05 0.00027487830683016657 -0.0010051928120797158 0.00072120313793262562 -0.00055525989733947703 0.00022888196552487951 -0.00066613818247441799 -0.0013792071291407861
leaf_weight=139078 75126 474016 47799 328340 116004 68237 109214 142145 321854 16537 100944 38748 234998 57921 15936
leaf_count=139078 75126 474016 47799 328340 116004 68237 109214 142145 321854 16537 100944 38748 234998 57921 15936
internal_value=-7.79156e-07 -9.62384e-05 -0.000186015 -0.000305368 -0.000146169 -0.000607456 -0.000781147 -2.13177e-05 0.000266838 -0.000124746 0.000381999 -5.67179e-06 5.91006e-05 -0.000139169 -0.000497149
internal_weight=2.2869e+06 1.68627e+06 1.21226e+06 702067 460280 241787 177451 510190 600624 64336 422798 177826 435064 200066 131940
internal_count=2286897 1686273 1212257 702067 460280 241787 177451 510190 600624 64336 422798 177826 435064 200066 131940
is_linear=0
shrinkage=0.0472


Tree=34
num_leaves=16
num_cat=0
split_feature=34 30 39 41 8 18 22 11 18 37 46 38 2 2 46
split_gain=23.5075 15.4202 13.1224 10.1942 9.51984 9.88505 8.65316 7.40772 7.27327 6.27904 5.87512 5.26666 5.26815 4.83726 4.98038
threshold=-0.51944294571876515 -0.86606141924858082 1.4995055198669436 0.10775584354996683 0.71494492888450634 -0.74144613742828358 0.36325488984584814 0.85701134800910961 -1.9352617859840391 0.62092572450637828 -1.0000000180025095e-35 -1.3463642001152036 -1.0000000180025095e-35 0.0014565984602086248 -1.1447920799255369
decision_type=2 2 2 2 2 2 2 2 2 2 2 2 2 2 2
left_child=2 10 -1 -4 7 6 -6 -3 -8 -5 11 -2 -13 14 -14
right_child=1 4 3 9 5 -7 8 -9 -10 -11 -12 12 13 -15 -16
leaf_value=-0.00014425990731271814 -0.00076810933501184932 2.8302311536684661e-05 -0.0018827239507639261 -0.00016942057106061778 0.00033809478183188075 0.00076117070757273546 -0.0010114311937669963 0.00031191360645744793 0.00060101956862532646 -0.00091509435151438962 -0.0006944969553408641 0.00018751895571749873 0.00027872544780506187 -4.0166867778428326e-05 -0.00089722615022415353
leaf_weight=446032 25466 865443 14539 52157 136562 107034 21512 269871 8574 50298 47364 109703 9916 85006 36656
leaf_count=446032 25466 865443 14539 52157 136562 107034 21512 269871 8574 50298 47364 109703 9916 85006 36656
internal_value=3.05102e-06 8.96684e-05 -0.000261622 -0.000707036 0.00015643 0.000406571 0.000177404 9.59242e-05 -0.000544176 -0.000537798 -0.000209063 -0.000121981 -5.2801e-05 -0.000254926 -0.000641869
internal_weight=2.28613e+06 1.72311e+06 563026 116994 1.409e+06 273682 166648 1.13531e+06 30086 102455 314111 266747 241281 131578 46572
internal_count=2286133 1723107 563026 116994 1408996 273682 166648 1135314 30086 102455 314111 266747 241281 131578 46572
is_linear=0
shrinkage=0.0472


Tree=35
num_leaves=16
num_cat=0
split_feature=23 11 46 30 9 40 34 40 23 36 40 34 10 18 8
split_gain=24.523 17.5705 12.4493 17.4768 9.86161 9.63698 8.60417 8.4137 6.66342 6.17133 5.92423 5.83775 5.80918 5.63852 5.94183
threshold=-0.60439008474349964 0.2384159937500954 0.026079782284796241 -1.0742923617362974 0.37109903991222387 -0.17962147295475003 -0.2840787917375564 0.027126425877213482 0.2190133407711983 0.3339803963899613 0.027098481543362144 -0.09976912289857863 -0.88182345032691944 -0.6797574758529662 -0.45906345546245569
decision_type=2 2 2 2 2 2 2 2 2 2 2 2 2 2 2
left_child=6 2 4 -4 5 -2 -1 8 10 12 -7 -3 -6 -8 -15
right_child=1 11 3 -5 9 7 13 -9 -10 -11 -12 -13 -14 14 -16
leaf_value=-2.5434380086654141e-06 3.7816978553950163e-05 -7.2009861838120707e-05 -0.0014080982865858902 -0.000305211513913369 -0.00073460440656334422 5.2063899779316983e-06 0.00019335265079249082 -4.4990413637572295e-05 -0.000201215843533772 0.00080048529481493405 -0.0010111889287589227 0.00023523461921598536 0.00022259294067582394 0.00019883080926146033 0.0007214064231215666
leaf_weight=183847 247907 218480 34904 407984 16222 14726 188804 104229 59179 35903 78303 368624 106116 74397 147069
leaf_count=183847 247907 218480 34904 407984 16222 14726 188804 104229 59179 35903 78303 368624 106116 74397 147069
internal_value=3.54836e-06 -8.79261e-05 -0.000198831 -0.000392678 -6.89064e-05 -0.000171179 0.000264537 -0.000374121 -0.000597967 0.000255585 -0.000847824 0.000120505 9.37341e-05 0.000384781 0.000546918
internal_weight=2.28669e+06 1.69258e+06 1.10547e+06 442888 662585 504344 594117 256437 152208 158241 93029 587104 122338 410270 221466
internal_count=2286694 1692577 1105473 442888 662585 504344 594117 256437 152208 158241 93029 587104 122338 410270 221466
is_linear=0
shrinkage=0.0472


Tree=36
num_leaves=16
num_cat=0
split_feature=40 35 47 47 18 46 20 16 45 18 16 41 3 3 44
split_gain=21.9342 14.7233 10.4366 17.8228 15.0443 9.31008 8.72188 8.29934 9.32125 7.64535 8.23459 13.5904 11.7078 16.5309 7.5179
threshold=-0.56542682647705067 -1.6702896356582639 1.0000000180025095e-35 0.00047524155525024986 -1.9352617859840391 -0.55368092656135548 -1.0000000180025095e-35 -0.7528085708618163 0.34259204566478735 -1.1207787394523618 -1.0000000180025095e-35 -1.0000000180025095e-35 1.0000000180025095e-35 0.0080960881896317023 2.4125609397888188
decision_type=2 2 2 2 2 2 2 2 2 2 2 2 2 2 2
left_child=9 14 6 4 5 -4 -3 -6 -9 -1 -11 12 -12 -14 -2
right_child=1 2 3 -5 7 -7 -8 8 -10 10 11 -13 13 -15 -16
leaf_value=-9.7601667629266893e-06 -0.00042527412213674896 -4.0774423723783765e-06 -0.00042798039959444792 6.5151868832632679e-06 -0.001066863400904182 0.00060993261227670415 0.00040544311625818511 -0.00018524953452906726 -0.00089279607262560297 0.00047615788633925422 -0.00022899340190357204 -0.0010908152094264566 0.0019386670079701179 0.00016376949143273806 -0.0014841454688947094
leaf_weight=200349 123445 490582 35121 540924 66924 42308 151242 113989 66234 305260 58098 20360 17292 37099 17287
leaf_count=200349 123445 490582 35121 540924 66924 42308 151242 113989 66234 305260 58098 20360 17292 37099 17287
internal_value=-4.11804e-06 -9.52081e-05 -5.19298e-05 -0.00015898 -0.000435493 0.00013616 9.20669e-05 -0.000615523 -0.000446595 0.000230649 0.000341115 2.9062e-05 0.00023388 0.000732515 -0.000557069
internal_weight=2.28651e+06 1.64806e+06 1.50732e+06 865500 324576 77429 641824 247147 180223 638458 438109 132849 112489 54391 140732
internal_count=2286514 1648056 1507324 865500 324576 77429 641824 247147 180223 638458 438109 132849 112489 54391 140732
is_linear=0
shrinkage=0.0472


Tree=37
num_leaves=16
num_cat=0
split_feature=23 11 39 22 22 9 7 23 45 17 16 17 9 9 45
split_gain=20.8665 15.9992 10.5256 8.70165 9.41296 8.98541 7.73339 6.72473 6.1595 10.3853 8.05928 12.3099 8.1021 7.29557 7.16309
threshold=-0.56768426299095143 0.37856042385101324 1.8329166173934939 0.091575518250465407 0.028356268070638183 -2.3005290031433101 0.57028126716613781 -1.5963616967201231 0.019284591078758243 0.028907170519232753 0.22337754070758822 0.028897282667458061 -2.3005290031433101 0.57092344760894786 0.019298994913697246
decision_type=2 2 2 2 2 2 2 2 2 2 2 2 2 2 2
left_child=3 2 8 4 -1 7 -7 -5 -2 10 12 -12 -10 -11 -14
right_child=1 -3 -4 5 -6 6 -8 -9 9 13 11 -13 14 -15 -16
leaf_value=0.00022181001627479701 -4.5644684268250123e-06 0.00013541187120552143 -0.00058278593023348643 -0.0012529868986333947 0.00073246337621486865 0.00034700456662496324 -0.00036087848747409659 -8.3612881090876744e-05 -0.00092163820128863974 -0.00026266646540402207 -0.000129433549520475 -0.0014907025746020357 0.0003112543339411458 0.00016941737189265566 -0.00046846841405806788
leaf_weight=305129 462727 500735 130960 19897 110372 121351 47702 25400 35649 210799 24952 37843 49978 147689 54942
leaf_count=305129 462727 500735 130960 19897 110372 121351 47702 25400 35649 210799 24952 37843 49978 147689 54942
internal_value=6.64139e-07 -8.71709e-05 -0.000183824 0.000232003 0.000358027 -1.12088e-05 0.000145882 -0.000602517 -0.000132599 -0.000237632 -0.000507278 -0.000953571 -0.000306218 -8.40119e-05 -9.48502e-05
internal_weight=2.28612e+06 1.65627e+06 1.15554e+06 629851 415501 214350 169053 45297 1.02458e+06 561852 203364 62795 140569 358488 104920
internal_count=2286125 1656274 1155539 629851 415501 214350 169053 45297 1024579 561852 203364 62795 140569 358488 104920
is_linear=0
shrinkage=0.0472


Tree=38
num_leaves=16
num_cat=0
split_feature=33 23 30 39 16 11 18 8 22 23 41 10 46 9 25
split_gain=19.2716 16.3459 12.3267 12.2789 8.14528 6.2463 5.24378 6.52875 5.96253 5.58614 4.71081 4.60489 3.88293 4.01724 3.68253
threshold=-0.50234723091125477 -0.60439008474349964 -0.93078652024269093 1.4995055198669436 1.9447885155677798 0.42846715450286871 -0.6797574758529662 1.1816660761833193 0.3994941264390946 -1.5963616967201231 1.9529676437377932 -1.6648582220077512 -0.050512297078967087 0.6452312469482423 -0.51952704787254322
decision_type=2 2 2 2 2 2 2 2 2 2 2 2 2 2 2
left_child=3 6 11 14 -5 -4 8 -8 -2 -10 -6 -3 13 -13 -1
right_child=1 2 5 4 10 -7 7 -9 9 -11 -12 12 -14 -15 -16
leaf_value=7.3021692079574684e-05 0.00027943377449256155 -0.0013655503523516139 -3.2795753697858377e-05 -0.00049643056417220891 -0.0021940962090104977 0.00020596284663735844 0.00033867277021815579 0.00093722120487708461 -0.0009419092821064479 9.5468391399257705e-05 -0.00069848343613735959 -0.00032844836056712126 -0.00080503211598113259 0.00022891659027582988 -0.00022157110761424043
leaf_weight=128216 159464 9519 668463 73931 11787 383439 198686 51974 19276 28027 8745 131157 28667 36407 349057
leaf_count=128216 159464 9519 668463 73931 11787 383439 198686 51974 19276 28027 8745 131157 28667 36407 349057
internal_value=-2.45437e-06 7.65552e-05 -1.11465e-05 -0.000239868 -0.000732109 5.40173e-05 0.000318184 0.000463732 0.000140608 -0.000322462 -0.00156891 -0.000345412 -0.000294689 -0.000205961 -0.000141946
internal_weight=2.28682e+06 1.71508e+06 1.25765e+06 571736 94463 1.0519e+06 457427 250660 206767 47303 20532 205750 196231 167564 477273
internal_count=2286815 1715079 1257652 571736 94463 1051902 457427 250660 206767 47303 20532 205750 196231 167564 477273
is_linear=0
shrinkage=0.0472


Tree=39
num_leaves=16
num_cat=0
split_feature=23 11 34 46 46 16 16 38 45 8 9 22 23 25 25
split_gain=18.7981 12.6502 9.03221 8.21387 8.72579 18.0579 7.26584 6.09936 5.78532 5.62826 6.59555 4.9588 7.95559 4.75832 10.2639
threshold=-0.38991189002990717 0.2384159937500954 -1.7231941223144529 0.026079782284796241 0.0261118533089757 0.22337754070758822 -1.0550009906291959 1.4210473895072939 2.0488734245300297 -0.45906345546245569 -0.83426383137702931 0.3994941264390946 -1.415015637874603 1.0000000180025095e-35 0.010428293142467739
decision_type=2 2 2 2 2 2 2 2 2 2 2 2 2 2 2
left_child=2 3 -1 -2 5 6 -5 -7 -6 -4 11 -11 -13 -8 -15
right_child=1 -3 9 4 8 7 13 -9 -10 10 -12 12 -14 14 -16
leaf_value=-0.00049652771020902936 -8.5397145864634792e-05 9.1227171970757729e-05 1.4496028067323847e-05 -0.00083749133144608704 -0.00016152325337908332 -0.0012893685299827391 0.00076793212671809991 -0.0031054342285999539 -0.00087167323010260667 0.0002289680466492159 0.00044492891856756525 -0.0008877964048838935 0.00025160708401876074 -0.0023101428405596018 0.00030459343439599029
leaf_weight=41084 572231 509031 216451 25259 258105 35697 17376 4930 28622 195688 309691 25541 28853 4390 13573
leaf_count=41084 572231 509031 216451 25259 258105 35697 17376 4930 28622 195688 309691 25541 28853 4390 13573
internal_value=2.15832e-06 -9.86785e-05 0.000183708 -0.000199596 -0.000367438 -0.000745213 -0.000224462 -0.00151604 -0.000233244 0.000220015 0.000299069 0.000117507 -0.000279204 0.000207253 -0.000322326
internal_weight=2.28652e+06 1.46921e+06 817308 960183 387952 101225 60598 40627 286727 776224 559773 250082 54394 35339 17963
internal_count=2286522 1469214 817308 960183 387952 101225 60598 40627 286727 776224 559773 250082 54394 35339 17963
is_linear=0
shrinkage=0.0472


Tree=40
num_leaves=16
num_cat=0
split_feature=40 35 47 47 18 23 46 23 16 3 16 18 16 23 7
split_gain=17.1333 11.9827 10.3706 16.4877 15.0584 9.47535 8.69291 8.0618 7.84268 6.9444 7.91423 6.67688 7.19497 7.00774 6.33955
threshold=-0.56542682647705067 -2.623043298721313 1.0000000180025095e-35 0.00047524155525024986 -1.9352617859840391 0.81748345494270336 -0.55368092656135548 -1.2039661407470701 -1.0550009906291959 -0.38610896468162531 1.5396038293838503 -0.74144613742828358 0.22337754070758822 0.304507926106453 -1.0000000180025095e-35
decision_type=2 2 2 2 2 2 2 2 2 2 2 2 2 2 2
left_child=11 -2 9 4 6 7 -4 -6 -9 10 -3 12 -1 -13 -11
right_child=1 2 3 -5 5 -7 -8 8 -10 14 -12 13 -14 -15 -16
leaf_value=9.522959112186064e-05 -0.00088349757884529138 -8.7714641838649457e-05 -0.00040105473597515622 -1.3821476162154453e-05 0.0014198761868909856 0.00031303636150793187 0.00057473138341024093 -0.0014812248147718784 -0.00062390752817653228 -5.0373564884268939e-05 -0.0014138081672979018 0.0005068909925929607 -0.0013275879279956613 -5.1808406094914958e-06 0.00030371940498262554
leaf_weight=332564 40727 177960 37008 592898 3889 22703 44823 27448 206537 176846 10665 217586 8088 80740 305443
leaf_count=332564 40727 177960 37008 592898 3889 22703 44823 27448 206537 176846 10665 217586 8088 80740 305443
internal_value=-3.01295e-06 -8.36014e-05 -6.31706e-05 -0.000164827 -0.000425619 -0.000601183 0.000130608 -0.000689418 -0.000725516 7.82019e-05 -0.000163981 0.000204337 6.07362e-05 0.00036753 0.000173402
internal_weight=2.28592e+06 1.64695e+06 1.60622e+06 935306 342408 260577 81831 237874 233985 670914 188625 638978 340652 298326 482289
internal_count=2285925 1646947 1606220 935306 342408 260577 81831 237874 233985 670914 188625 638978 340652 298326 482289
is_linear=0
shrinkage=0.0472


Tree=41
num_leaves=16
num_cat=0
split_feature=34 30 16 25 25 3 3 31 38 3 3 5 40 15 15
split_gain=17.922 12.4952 9.79768 8.18912 8.03528 7.26144 29.352 6.97382 6.63462 6.59135 12.3956 6.07003 5.6021 7.44678 10.05
threshold=-0.2840787917375564 -0.078543223440647111 1.9447885155677798 0.33679148554801946 -0.75128236413002003 1.0000000180025095e-35 0.0080960881896317023 1.1718009710311892 -1.4287732839584348 1.0000000180025095e-35 0.0080960881896317023 -0.27198489010334009 -0.094357050955295549 -0.0053125550039112559 -1.0000000180025095e-35
decision_type=2 2 2 2 2 2 2 2 2 2 2 2 2 2 2
left_child=2 8 4 12 9 -5 -7 -6 -2 -1 -11 -4 13 -3 -15
right_child=1 3 11 5 7 6 -8 -9 -10 10 -12 -13 -14 14 -16
leaf_value=-5.1200842217443083e-05 -0.00055214113930404749 7.5830173082538249e-05 -0.0014684817635225772 0.00014827152761925021 -0.00014177209353277996 0.0021804221573618089 0.00030898888694759789 -0.00059732858458580972 -1.1621992596435021e-05 0.0016137880932861042 2.114884788328437e-05 -0.00042022616025072263 -2.5064527999206276e-05 0.00093324070415226612 0.0001916979207843107
leaf_weight=83267 55166 233562 19379 77538 474684 24627 78872 89550 622167 18076 28115 36336 273718 68057 103927
leaf_count=83267 55166 233562 19379 77538 474684 24627 78872 89550 622167 18076 28115 36336 273718 68057 103927
internal_value=3.0324e-06 9.53742e-05 -0.000186125 0.000214818 -0.000137348 0.000497388 0.000756665 -0.000214492 -5.59933e-05 0.000197082 0.000649592 -0.000789157 0.000139161 0.000250572 0.000486517
internal_weight=2.28704e+06 1.53763e+06 749407 860301 693692 181037 103499 564234 677333 129458 46191 55715 679264 405546 171984
internal_count=2287041 1537634 749407 860301 693692 181037 103499 564234 677333 129458 46191 55715 679264 405546 171984
is_linear=0
shrinkage=0.0472


Tree=42
num_leaves=16
num_cat=0
split_feature=23 14 39 22 22 9 0 0 30 3 3 16 17 17 25
split_gain=16.691 12.2281 10.7664 6.73639 8.57723 8.0488 5.65119 7.39362 5.57729 5.15271 14.9778 5.8125 5.46979 11.0727 5.90427
threshold=-0.68921980261802662 -0.11808660998940466 1.4995055198669436 0.18785244226455691 0.028356268070638183 -2.3005290031433101 0.10234886035323144 -0.0008967683243099599 -0.334779143333435 1.0000000180025095e-35 0.0080960881896317023 0.22337754070758822 0.028897282667458061 0.028907170519232753 0.010428293142467739
decision_type=2 2 2 2 2 2 2 2 2 2 2 2 2 2 2
left_child=3 2 -2 4 9 -5 7 -7 -3 11 12 -1 -11 14 -14
right_child=1 8 -4 5 -6 6 -8 -9 -10 10 -12 -13 13 -15 -16
leaf_value=0.00015266566286006701 -0.00012712497633536544 -0.00013512478758970388 -0.00059713745653398691 -0.00060705063682912094 0.00071513165097860829 0.00019345645358113017 -0.00015750734643112162 0.0014001280207895719 0.00012190434820306818 0.0018353995915177856 4.6992844692760697e-05 -0.00063859574280675962 -0.0014219996922116981 0.0016744310322853032 0.00094989754727969812
leaf_weight=116916 711875 261562 128692 39048 102631 49137 59714 14946 665068 17108 74363 25106 5939 11398 3736
leaf_count=116916 711875 261562 128692 39048 102631 49137 59714 14946 665068 17108 74363 25106 5939 11398 3736
internal_value=1.15725e-07 -6.8951e-05 -0.000199365 0.000235259 0.000349987 -1.49752e-05 0.000169935 0.000478647 4.91017e-05 0.000201846 0.000440439 1.11301e-05 0.00120049 0.000673525 -0.000482149
internal_weight=2.28724e+06 1.7672e+06 840567 520042 357197 162845 123797 64083 926630 254566 112544 142022 38181 21073 9675
internal_count=2287239 1767197 840567 520042 357197 162845 123797 64083 926630 254566 112544 142022 38181 21073 9675
is_linear=0
shrinkage=0.0472


Tree=43
num_leaves=16
num_cat=0
split_feature=33 23 44 30 18 8 11 21 31 22 23 46 10 46 16
split_gain=15.0514 12.3416 10.4441 9.84751 5.05953 5.55571 4.81513 4.48931 4.04991 3.83162 4.8406 3.75561 3.9937 3.68399 4.7182
threshold=-0.50234723091125477 -0.60439008474349964 2.4125609397888188 -0.93078652024269093 -0.52465957403182972 1.1816660761833193 0.42846715450286871 -1.4580214023590086 1.389367461204529 0.18785244226455691 -1.5963616967201231 -0.050512297078967087 -1.0000000180025095e-35 0.0261118533089757 0.57293963432312023
decision_type=2 2 2 2 2 2 2 2 2 2 2 2 2 2 2
left_child=2 4 7 11 9 13 -5 -1 -9 -2 -11 12 -3 14 -6
right_child=1 3 -4 6 5 -7 -8 8 -10 10 -12 -13 -14 -15 -16
leaf_value=-0.0010753013630544117 0.00024579860012754855 -0.00038999259856349253 -0.0010107254078079398 -2.3469652143136407e-05 0.00036515318417210444 0.00093385968907039243 0.00018617816248634979 -9.4469997407452643e-05 -0.00054792644414970997 -0.00076842620860693891 9.7908879737571458e-05 -0.00079027377074159487 7.4468803083569594e-05 0.00058518049746655756 -0.0003138634369791382
leaf_weight=11686 173433 111125 34142 668523 69743 42314 383024 477438 48686 20990 44417 30518 64399 72591 33543
leaf_count=11686 173433 111125 34142 668523 69743 42314 383024 477438 48686 20990 44417 30518 64399 72591 33543
internal_value=5.13034e-07 7.05555e-05 -0.000209056 -5.60358e-06 0.000280621 0.000445363 5.26748e-05 -0.000157718 -0.00013688 0.000129143 -0.000176633 -0.000304145 -0.000218269 0.000326481 0.000142387
internal_weight=2.28657e+06 1.71462e+06 571952 1.25759e+06 457031 218191 1.05155e+06 537810 526124 238840 65407 206042 175524 175877 103286
internal_count=2286572 1714620 571952 1257589 457031 218191 1051547 537810 526124 238840 65407 206042 175524 175877 103286
is_linear=0
shrinkage=0.0472


Tree=44
num_leaves=16
num_cat=0
split_feature=34 30 39 41 25 3 3 10 25 3 3 5 5 41 23
split_gain=14.1369 10.8508 8.82946 8.68358 7.6745 8.31613 32.5762 6.4312 6.12756 6.51101 14.1572 6.05553 8.06332 14.7196 4.8278
threshold=-0.2840787917375564 -0.80266147851943959 1.4995055198669436 0.067958749830722823 0.19860522449016574 -1.0000000180025095e-35 0.0080960881896317023 -0.52143001556396473 -0.57559940218925465 1.0000000180025095e-35 0.0080960881896317023 0.0037926323711872105 1.0000000180025095e-35 0.028817648068070415 -0.83216205239295948
decision_type=2 2 2 2 2 2 2 2 2 2 2 2 2 2 2
left_child=2 14 8 -4 -3 -6 11 -5 9 -1 -11 12 -7 -14 -2
right_child=1 4 3 7 5 6 -8 -9 -10 10 -12 -13 13 -15 -16
leaf_value=-5.4630172163250545e-05 0.00019734411058683346 7.5391845687850217e-05 -0.0015400142827685741 -0.00094209466305301384 6.4026018532500675e-05 0.00099596806929469657 0.00019863628288570759 -0.00015190671333532065 -0.00017708889733247744 0.0015846029177957281 -1.4701689460142495e-05 0.00075299198900184033 0.0046138846419286903 0.0017533836851662571 -0.00026455898419836888
leaf_weight=97604 62948 918371 16379 32076 133764 11052 135158 84082 467878 19923 31598 11692 5959 13763 244012
leaf_count=97604 62948 918371 16379 32076 133764 11052 135158 84082 467878 19923 31598 11692 5959 13763 244012
internal_value=-2.57889e-07 8.1611e-05 -0.000168415 -0.000518317 0.000144375 0.000347074 0.000558913 -0.000372156 -9.28717e-05 0.000169801 0.000599409 0.00169986 0.00205178 0.00263103 -0.00016908
internal_weight=2.28626e+06 1.53672e+06 749540 132537 1.22976e+06 311388 177624 116158 617003 149125 51521 42466 30774 19722 306960
internal_count=2286259 1536719 749540 132537 1229759 311388 177624 116158 617003 149125 51521 42466 30774 19722 306960
is_linear=0
shrinkage=0.0472


Tree=45
num_leaves=16
num_cat=0
split_feature=40 47 47 20 20 45 20 9 16 39 3 3 45 45 45
split_gain=13.5526 10.3246 13.4005 9.78366 8.13481 8.1214 7.95309 7.14493 7.11391 6.89408 6.18379 14.4613 7.52376 11.4838 6.04871
threshold=-0.63305544853210438 1.0000000180025095e-35 0.00047524155525024986 1.1187610030174258 -1.0000000180025095e-35 2.3677372932434086 0.00069328962126746785 0.37109903991222387 1.9447885155677798 0.26776891946792608 1.0000000180025095e-35 0.0080960881896317023 0.019284591078758243 0.019298994913697246 0.64387336373329174
decision_type=2 2 2 2 2 2 2 2 2 2 2 2 2 2 2
left_child=-1 4 5 -4 8 7 -6 9 10 -3 -2 12 -12 -14 -9
right_child=1 2 3 -5 6 -7 -8 14 -10 -11 11 -13 13 -15 -16
leaf_value=0.00019936889929280096 -0.00015649460729135506 -0.00036996436424673783 6.0635396144694662e-05 -0.00037380165861624449 0.0006390108310964335 -0.0016564803634072545 -3.5310385481361205e-06 0.00036542254600582547 -0.00066913125740407451 -0.0010211861749364428 0.0014631226062267553 -3.1611420690746934e-05 -0.00050730277730890718 0.00092512912960062755 -0.00042594910785675538
leaf_weight=563820 231039 205859 502548 149774 95559 11216 76603 47828 35185 44731 22182 207207 18985 35495 39080
leaf_count=563820 231039 205859 502548 149774 95559 11216 76603 47828 35185 44731 22182 207207 18985 35495 39080
internal_value=-1.39739e-06 -6.72184e-05 -0.00016542 -3.87605e-05 6.85671e-05 -0.000401684 0.000351783 -0.000359257 -1.96536e-05 -0.000487164 2.42875e-05 0.000172241 0.000726188 0.000421709 6.89471e-06
internal_weight=2.28711e+06 1.72329e+06 1.00104e+06 652322 722255 348714 172162 337498 550093 250590 514908 283869 76662 54480 86908
internal_count=2287111 1723291 1001036 652322 722255 348714 172162 337498 550093 250590 514908 283869 76662 54480 86908
is_linear=0
shrinkage=0.0472


Tree=46
num_leaves=16
num_cat=0
split_feature=34 31 40 39 25 18 24 12 41 24 32 6 6 31 17
split_gain=13.3057 8.2108 7.52543 6.25058 5.99456 5.88504 5.53287 5.03055 4.98786 4.50875 4.3528 5.42041 8.03856 5.43754 6.54295
threshold=-0.37050834298133845 0.96887415647506725 -0.701952964067459 1.8329166173934939 0.4507910311222077 -0.55664303898811329 0.019468751735985283 0.89909091591835033 2.0556590557098393 0.019484712742269043 -0.54882946610450734 -1.0000000180025095e-35 9.051546658156441e-05 0.53943356871604931 0.028897282667458061
decision_type=2 2 2 2 2 2 2 2 2 2 2 2 2 2 2
left_child=1 7 6 -3 10 -6 -2 -1 -5 -8 11 -4 13 -13 -15
right_child=2 3 4 8 5 -7 9 -9 -10 -11 -12 12 -14 14 -16
leaf_value=-1.9098819804512926e-05 0.00016109439879763115 -0.00030843427461931298 1.0919259004255434e-05 -0.0016516674119158674 -7.0297886407383252e-05 0.00040097061033712438 0.00087015980890411222 -0.00045936152477156039 -0.00051411586064433737 0.00011870893695013067 3.8329853133193341e-05 -0.0003696805357885606 1.7496545769291803e-05 -0.00057918176278182892 -0.0019154047943115637
leaf_weight=430573 324143 140271 184360 15617 94808 153242 50824 67031 20957 28554 593859 70484 75824 22323 13590
leaf_count=430573 324143 140271 184360 15617 94808 153242 50824 67031 20957 28554 593859 70484 75824 22323 13590
internal_value=-1.49404e-06 -0.000177623 7.20533e-05 -0.000454143 1.29207e-05 0.000219916 0.000248569 -7.88777e-05 -0.00100645 0.000602805 -4.02997e-05 -0.000168309 -0.000350903 -0.000615601 -0.00109161
internal_weight=2.28646e+06 674449 1.61201e+06 176845 1.20849e+06 248050 403521 497604 36574 79378 960440 366581 182221 106397 35913
internal_count=2286460 674449 1612011 176845 1208490 248050 403521 497604 36574 79378 960440 366581 182221 106397 35913
is_linear=0
shrinkage=0.0472


Tree=47
num_leaves=16
num_cat=0
split_feature=23 13 29 10 47 47 23 31 19 30 20 9 17 17 25
split_gain=12.6703 9.55584 7.10348 6.52757 6.16175 8.11103 7.97467 5.18598 4.58504 4.4945 4.39501 4.24595 5.36194 13.9391 5.2001
threshold=-0.35759833455085749 0.72621479630470287 -1.5043351054191587 -1.5079631209373472 -1.0000000180025095e-35 0.00047524155525024986 0.44595400989055639 1.1156744956970217 0.32364866137504583 0.16159337759017947 0.00069328962126746785 -0.58860814571380604 0.028897282667458061 0.028907170519232753 -1.0000000180025095e-35
decision_type=2 2 2 2 2 2 2 2 2 2 2 2 2 2 2
left_child=2 3 -1 9 -5 6 7 -6 11 -2 -7 -4 -13 14 -14
right_child=1 -3 8 4 5 10 -8 -9 -10 -11 -12 12 13 -15 -16
leaf_value=-0.00032106513217099896 -0.00097055540041560628 0.00014398673474161634 0.0001234989516592689 1.4858440493452966e-05 -0.00049288127369136322 0.00018163515738286749 6.3384357286185922e-05 -0.0013165040211054351 -6.0157877513967462e-06 -9.5237332695338682e-05 -0.00017780040042429988 0.00060572860103317075 0 0.00042856069848050301 -0.0011499177320455111
leaf_weight=66748 35403 316622 290346 428561 165905 102248 54877 19470 204822 21705 288383 130573 15843 126375 19380
leaf_count=66748 35403 316622 290346 428561 165905 102248 54877 19470 204822 21705 288383 130573 15843 126375 19380
internal_value=1.14459e-06 -8.45121e-05 0.000145149 -0.000149516 -0.000122746 -0.000216587 -0.000432615 -0.000580692 0.00018497 -0.000641991 -8.31232e-05 0.00025252 0.000379935 0.000196036 -0.000631557
internal_weight=2.28726e+06 1.43317e+06 854087 1.11655e+06 1.05944e+06 630883 240252 185375 787339 57108 390631 582517 292171 161598 35223
internal_count=2287261 1433174 854087 1116552 1059444 630883 240252 185375 787339 57108 390631 582517 292171 161598 35223
is_linear=0
shrinkage=0.0472


end of trees

feature_importances:
turnover_stability_20=71
ln_market_cap=60
ivol_20=56
gap_frequency_20=52
atr_norm_20=51
turnover_std_20=43
stoch_rsv_20=37
turnover_mean_20=37
volatility_60=31
price_level_factor=26
vwap_bias_1d=22
volume_std_20=18
a158_std60=17
mf_divergence=17
bp_ratio=16
beta_market_20=15
amihud_20=14
large_order_ratio=13
gain_loss_ratio_20=12
reversal_20=12
high_low_range_20=11
a158_rank5=10
kbar_ksft=10
maxret_20=9
price_volume_corr_20=7
chmom_60_20=5
ep_ratio=5
reversal_10=5
reversal_5=5
a158_cord30=4
a158_vsump60=4
a158_vstd30=3
momentum_10=3
reversal_60=3
a158_vsump5=2
kbar_kmid=2
momentum_5=2
money_flow_strength=2
rsrs_raw_18=2
volatility_20=2
dv_ttm=1
kbar_kup=1
momentum_20=1
relative_volume_20=1

parameters:
[boosting: gbdt]
[objective: regression]
[metric: l2]
[tree_learner: serial]
[device_type: gpu]
[data_sample_strategy: bagging]
[data: ]
[valid: ]
[num_iterations: 500]
[learning_rate: 0.0472]
[num_leaves: 16]
[num_threads: -1]
[seed: 42]
[deterministic: 0]
[force_col_wise: 1]
[force_row_wise: 0]
[histogram_pool_size: -1]
[max_depth: 8]
[min_data_in_leaf: 60]
[min_sum_hessian_in_leaf: 0.001]
[bagging_fraction: 0.777]
[pos_bagging_fraction: 1]
[neg_bagging_fraction: 1]
[bagging_freq: 1]
[bagging_seed: 400]
[bagging_by_query: 0]
[feature_fraction: 0.794]
[feature_fraction_bynode: 1]
[feature_fraction_seed: 30056]
[extra_trees: 0]
[extra_seed: 12879]
[early_stopping_round: 50]
[early_stopping_min_delta: 0]
[first_metric_only: 0]
[max_delta_step: 0]
[lambda_l1: 4.906]
[lambda_l2: 8.447]
[linear_lambda: 0]
[min_gain_to_split: 0.072]
[drop_rate: 0.1]
[max_drop: 50]
[skip_drop: 0.5]
[xgboost_dart_mode: 0]
[uniform_drop: 0]
[drop_seed: 17869]
[top_rate: 0.2]
[other_rate: 0.1]
[min_data_per_group: 100]
[max_cat_threshold: 32]
[cat_l2: 10]
[cat_smooth: 10]
[max_cat_to_onehot: 4]
[top_k: 20]
[monotone_constraints: ]
[monotone_constraints_method: basic]
[monotone_penalty: 0]
[feature_contri: ]
[forcedsplits_filename: ]
[refit_decay_rate: 0.9]
[cegb_tradeoff: 1]
[cegb_penalty_split: 0]
[cegb_penalty_feature_lazy: ]
[cegb_penalty_feature_coupled: ]
[path_smooth: 0]
[interaction_constraints: ]
[verbosity: -1]
[saved_feature_importance_type: 0]
[use_quantized_grad: 0]
[num_grad_quant_bins: 4]
[quant_train_renew_leaf: 0]
[stochastic_rounding: 1]
[linear_tree: 0]
[max_bin: 63]
[max_bin_by_feature: ]
[min_data_in_bin: 3]
[bin_construct_sample_cnt: 200000]
[data_random_seed: 175]
[is_enable_sparse: 1]
[enable_bundle: 1]
[use_missing: 1]
[zero_as_missing: 0]
[feature_pre_filter: 1]
[pre_partition: 0]
[two_round: 0]
[header: 0]
[label_column: ]
[weight_column: ]
[group_column: ]
[ignore_column: ]
[categorical_feature: ]
[forcedbins_filename: ]
[precise_float_parser: 0]
[parser_config_file: ]
[objective_seed: 16083]
[num_class: 1]
[is_unbalance: 0]
[scale_pos_weight: 1]
[sigmoid: 1]
[boost_from_average: 1]
[reg_sqrt: 0]
[alpha: 0.9]
[fair_c: 1]
[poisson_max_delta_step: 0.7]
[tweedie_variance_power: 1.5]
[lambdarank_truncation_level: 30]
[lambdarank_norm: 1]
[label_gain: ]
[lambdarank_position_bias_regularization: 0]
[eval_at: ]
[multi_error_top_k: 1]
[auc_mu_weights: ]
[num_machines: 1]
[local_listen_port: 12400]
[time_out: 120]
[machine_list_filename: ]
[machines: ]
[gpu_platform_id: 0]
[gpu_device_id: 0]
[gpu_use_dp: 0]
[num_gpu: 1]

end of parameters

pandas_categorical:null
