tree
version=v4
num_class=1
num_tree_per_iteration=1
label_index=0
max_feature_idx=47
objective=regression
feature_names=amihud_20 atr_norm_20 bp_ratio dv_ttm ep_ratio gap_frequency_20 high_low_range_20 ivol_20 ln_market_cap momentum_10 momentum_20 momentum_5 price_level_factor price_volume_corr_20 relative_volume_20 reversal_10 reversal_20 reversal_5 rsrs_raw_18 turnover_mean_20 turnover_std_20 turnover_surge_ratio volatility_20 volatility_60 volume_std_20 a158_corr5 a158_rank5 a158_vma5 a158_vsump5 beta_market_20 chmom_60_20 gain_loss_ratio_20 kbar_kmid kbar_ksft kbar_kup large_order_ratio maxret_20 mf_divergence money_flow_strength reversal_60 stoch_rsv_20 turnover_stability_20 up_days_ratio_20 vwap_bias_1d a158_cord30 a158_vstd30 a158_std60 a158_vsump60
feature_infos=[-2.6946151256561279:2.6806237697601318] [-2.6195993423461914:2.9696273803710938] [-2.993321418762207:2.6592724323272705] [-2.4857685565948486:2.2250990867614746] [-2.7293031215667725:2.5516715049743652] [-1.3832269906997681:2.8656127452850342] [-3.1734960079193115:2.8533122539520264] [-1.999891996383667:2.8775830268859863] [-3.0759820938110352:2.7914121150970459] [-2.8490457534790039:2.6877608299255371] [-2.8655903339385986:2.6661362648010254] [-2.7645294666290283:2.6258389949798584] [-3.2908017635345459:3.3644168376922607] [-2.8914282321929932:2.1845874786376953] [-2.4986915588378906:2.4750063419342041] [-2.6877608299255371:2.8490457534790039] [-2.6661362648010254:2.8655903339385986] [-2.6258389949798584:2.7645294666290283] [-2.9955129623413086:2.9662129878997803] [-2.640575647354126:2.5197675228118896] [-2.4304091930389404:2.4730565547943115] [-3.0597207546234131:2.72438645362854] [-3.2089240550994873:2.8409292697906494] [-2.8234715461730957:2.9915354251861572] [-2.5136587619781494:2.3318290710449219] none none none none none none none none none none none none none none none none none none none none none none none
tree_sizes=1320 1027 913 956 808 855 1097 1061 908 716 902 923 888 989 897 699 726 781 835 829 678 667 644 748 690 679 732 691 651 574 847 648 580 608 578 443 778 479 549 518 432 572 482 486 494 606 516 518 477

Tree=0
num_leaves=13
num_cat=0
split_feature=16 8 19 2 22 13 0 13 3 8 7 18
split_gain=1.78842 0.750612 0.64052 0.337088 0.277034 0.127213 0.1265 0.149811 0.123455 0.121699 0.10931 0.08965
threshold=-1.7437016963958738 -0.63745605945587147 0.23426157236099246 0.46268726885318762 -0.040969692170619958 -0.99841478466987599 -1.2965220212936399 1.16869592666626 0.17149011790752414 1.3640767335891726 -1.8629661202430723 1.0761235952377322
decision_type=2 2 2 2 2 2 2 2 2 2 2 2
left_child=4 6 3 8 -1 -6 -2 10 -3 -4 -8 -5
right_child=1 2 9 11 5 -7 7 -9 -10 -11 -12 -13
leaf_value=-0.028967665092364141 -0.028967665092364141 -0.029202451867884126 -0.029818435374562271 -0.028108607886561953 -0.028967665092364141 -0.031903473626470544 -0.028967665092364141 -0.028967665092364141 -0.028608025740213379 -0.028967665092364141 -0.027804829439542243 -0.028967665092364141
leaf_weight=93 120 2327 1915 1690 145 507 209 147 1120 183 2188 210
leaf_count=93 120 2327 1915 1690 145 507 209 147 1120 183 2188 210
internal_value=-0.0289447 -0.0287587 -0.0289717 -0.0287295 -0.0311362 -0.0314773 -0.0280787 -0.0279993 -0.0289677 -0.0296973 -0.027903 -0.0282245
internal_weight=10854 10109 7445 5347 745 652 2664 2544 3447 2098 2397 1900
internal_count=10854 10109 7445 5347 745 652 2664 2544 3447 2098 2397 1900
is_linear=0
shrinkage=1


Tree=1
num_leaves=10
num_cat=0
split_feature=23 21 8 2 18 8 8 14 14
split_gain=2.12407 0.42176 0.318184 0.231441 0.180537 0.171593 0.0764601 0.0735996 0.0744252
threshold=0.4458069801330567 -0.25102937221527094 -0.75120595097541798 0.21370771527290347 0.36159102618694311 -0.53078237175941456 -0.78633821010589589 1.0505949854850771 -0.80961674451827992
decision_type=2 2 2 2 2 2 2 2 2
left_child=2 5 -1 -4 6 -2 -3 8 -5
right_child=1 4 3 7 -6 -7 -8 -9 -10
leaf_value=0.00097627946824113568 0.00016129623887303215 0 -2.0884882178086229e-05 0 -0.0026442021619745688 -0.00067669683139384631 -0.0010143948036794932 0 0.00075862094220092763
leaf_weight=1792 399 115 3343 520 562 1098 881 347 1785
leaf_count=1792 399 115 3343 520 562 1098 881 347 1785
internal_value=-1.27982e-07 -0.00107328 0.00039191 0.000177555 -0.00166295 -0.000299963 -0.000861284 0.000513961 0.000612018
internal_weight=10842 3055 7787 5995 1558 1497 996 2652 2305
internal_count=10842 3055 7787 5995 1558 1497 996 2652 2305
is_linear=0
shrinkage=0.0471706


Tree=2
num_leaves=9
num_cat=0
split_feature=23 10 17 8 23 17 15 8
split_gain=1.90321 0.925383 0.206688 0.18486 0.131591 0.15474 0.128153 0.103541
threshold=0.4458069801330567 0.99047547578811657 -0.10479543358087538 -0.63745605945587147 0.80128964781761181 1.0816217660903933 1.0118446946144106 -0.56454339623451222
decision_type=2 2 2 2 2 2 2 2
left_child=2 3 7 -2 -3 -6 -4 -1
right_child=1 4 6 -5 5 -7 -8 -9
leaf_value=0.00043142906181496731 6.8264134008780834e-05 0 0.00069219864200321349 -0.00064894437207393756 -0.0032262989756058351 0 0 -0.00010003726706493113
leaf_weight=1116 502 197 3875 1857 514 85 716 2144
leaf_count=1116 502 197 3875 1857 514 85 716 2144
internal_value=0 -0.000992895 0.000376841 -0.000398866 -0.00244298 -0.0028958 0.000585282 1.17372e-05
internal_weight=11006 3155 7851 2359 796 599 4591 3260
internal_count=11006 3155 7851 2359 796 599 4591 3260
is_linear=0
shrinkage=0.0471706


Tree=3
num_leaves=10
num_cat=0
split_feature=16 19 8 13 19 2 0 8 4
split_gain=1.31776 0.564214 0.38356 0.33946 0.295543 0.180446 0.165726 0.118134 0.108846
threshold=-0.9567049741744994 -0.074096720665693269 -0.53078237175941456 -0.65800395607948292 0.29266873002052313 0.40988762676715856 -0.82200759649276722 1.1210683584213259 0.022514851763844494
decision_type=2 2 2 2 2 2 2 2 2
left_child=1 -1 6 -3 5 -4 -2 -5 -6
right_child=2 3 4 7 8 -7 -8 -9 -10
leaf_value=0 0 0 0 -0.0024592640340863098 -0.0007822005385412714 0.00059422904121553244 0.00086042300207344257 0 0
leaf_weight=603 537 232 2958 757 1064 1819 2422 76 541
leaf_count=603 537 232 2958 757 1064 1819 2422 76 541
internal_value=9.48175e-06 -0.00118543 0.000248486 -0.00183416 4.91294e-06 0.000225704 0.000694327 -0.00227801 -0.000506535
internal_weight=11009 1668 9341 1065 6382 4777 2959 833 1605
internal_count=11009 1668 9341 1065 6382 4777 2959 833 1605
is_linear=0
shrinkage=0.0471706


Tree=4
num_leaves=8
num_cat=0
split_feature=23 10 12 8 10 18 18
split_gain=1.75528 0.696008 0.191138 0.178932 0.107667 0.107545 0.0781048
threshold=0.4458069801330567 0.99047547578811657 -0.61728268861770619 -0.63745605945587147 1.7697166204452517 -0.89886075258254994 1.0761235952377322
decision_type=2 2 2 2 2 2 2
left_child=2 3 -1 -2 6 -5 -4
right_child=1 -3 4 5 -6 -7 -8
leaf_value=0 3.405859641615645e-05 -0.0022287756661088821 0.00060611059489678037 0 0 -0.00079757330454541058 0
leaf_weight=1694 506 786 5317 240 188 1606 648
leaf_count=1694 506 786 5317 240 188 1606 648
internal_value=0 -0.000941294 0.000377215 -0.000406556 0.000500437 -0.000651735 0.000546282
internal_weight=10985 3138 7847 2352 6153 1846 5965
internal_count=10985 3138 7847 2352 6153 1846 5965
is_linear=0
shrinkage=0.0471706


Tree=5
num_leaves=8
num_cat=0
split_feature=23 10 2 8 13 8 19
split_gain=1.47124 0.662166 0.2256 0.208003 0.128043 0.114252 0.0864336
threshold=0.50383621454238903 0.99047547578811657 -0.25222091376781458 -0.39959348738193506 0.69033750891685497 -0.26834855973720545 0.23426157236099246
decision_type=2 2 2 2 2 2 2
left_child=2 3 5 -2 6 -1 -4
right_child=1 -3 4 -5 -6 -7 -8
leaf_value=0.00030274354217346488 4.3647661873530607e-06 -0.0021984684051753957 0.00072496720259949293 -0.00073092579994325595 0 -0.00027428419535332343 0
leaf_weight=1335 733 766 3176 1442 1329 1734 411
leaf_count=1335 733 766 3176 1442 1329 1734 411
internal_value=-1.57292e-05 -0.000935609 0.000294755 -0.000378072 0.000492911 0 0.000641878
internal_weight=10926 2941 7985 2175 4916 3069 3587
internal_count=10926 2941 7985 2175 4916 3069 3587
is_linear=0
shrinkage=0.0471706


Tree=6
num_leaves=11
num_cat=0
split_feature=23 16 23 8 8 2 16 4 17 13
split_gain=1.55909 0.657877 0.289029 0.207249 0.189235 0.172555 0.101648 0.0954299 0.087697 0.0772808
threshold=0.25519184768199926 -1.0675467252731321 0.80128964781761181 -0.39959348738193506 -0.63745605945587147 0.40988762676715856 -1.5325787663459776 0.51943147182464611 0.15507001429796222 1.16869592666626
decision_type=2 2 2 2 2 2 2 2 2 2
left_child=3 2 -2 6 -3 8 -1 -6 -5 -7
right_child=1 4 -4 5 7 9 -8 -9 -10 -11
leaf_value=0 0 5.5407824983035804e-05 -0.0027745500796074879 -0.0003712905958772986 -0.00074133363816655828 0.00061205895857397688 0.00075685628501272911 0 8.3182442766030793e-05 0
leaf_weight=118 296 629 544 1477 1957 1507 2689 338 1198 145
leaf_count=118 296 629 544 1477 1957 1507 2689 338 1198 145
internal_value=-3.47667e-05 -0.000829322 -0.00206264 0.000352535 -0.000391176 8.29117e-05 0.000684463 -0.0006138 -8.18893e-05 0.000488204
internal_weight=10898 3764 840 7134 2924 4327 2807 2295 2675 1652
internal_count=10898 3764 840 7134 2924 4327 2807 2295 2675 1652
is_linear=0
shrinkage=0.0471706


Tree=7
num_leaves=11
num_cat=0
split_feature=23 10 8 2 8 4 17 8 23 13
split_gain=1.4266 0.5246 0.259548 0.240527 0.17804 0.114594 0.114527 0.109091 0.106202 0.0853596
threshold=0.4458069801330567 0.99047547578811657 -0.75120595097541798 0.21370771527290347 -0.39959348738193506 0.071772579103708281 0.094329848885536208 -0.86200970411300648 0.73642092943191539 0.79515278339385997
decision_type=2 2 2 2 2 2 2 2 2 2
left_child=2 4 -1 6 -2 -6 -4 -3 -9 -5
right_child=1 7 3 9 5 -7 -8 8 -10 -11
leaf_value=0.00085548858601521265 0 0 -0.00036905736913781455 0.00063789562580775097 -0.0009343360819533275 0 0.00012380174358544876 0 -0.0025333396684875426 0
leaf_weight=1798 796 62 1816 1992 1142 417 1571 136 555 619
leaf_count=1798 796 62 1816 1992 1142 417 1571 136 555 619
internal_value=0 -0.000863361 0.000330274 0.000133319 -0.000386573 -0.000691422 -7.25547e-05 -0.00202974 -0.0021982 0.000488104
internal_weight=10904 3108 7796 5998 2355 1559 3387 753 691 2611
internal_count=10904 3108 7796 5998 2355 1559 3387 753 691 2611
is_linear=0
shrinkage=0.0471706


Tree=8
num_leaves=9
num_cat=0
split_feature=23 21 6 8 19 8 14 7
split_gain=0.968764 0.410459 0.305048 0.296926 0.142299 0.108323 0.0992428 0.0929791
threshold=1.0000000180025095e-35 0.3062711507081986 0.64225324988365184 -0.53078237175941456 -0.14070279151201245 2.1940829753875737 -0.77718728780746449 -1.8629661202430723
decision_type=2 2 2 2 2 2 2 2
left_child=6 3 -3 -2 -4 -5 -1 -8
right_child=1 2 4 5 -6 -7 7 -9
leaf_value=0 0.00055589126048268532 -0.00011965844228412759 0 -0.0005341263210623166 -0.0021620945564463276 0 0 0.00057002724583254992
leaf_weight=1190 841 778 128 2345 625 111 357 4569
leaf_count=1190 841 778 128 2345 625 111 357 4569
internal_value=1.26041e-06 -0.000476024 -0.00113325 -9.8704e-05 -0.0018636 -0.0004179 0.000415956 0.000509408
internal_weight=10944 4828 1531 3297 753 2456 6116 4926
internal_count=10944 4828 1531 3297 753 2456 6116 4926
is_linear=0
shrinkage=0.0471706


Tree=9
num_leaves=7
num_cat=0
split_feature=23 10 24 18 14 8
split_gain=0.943864 0.461525 0.177144 0.169546 0.112037 0.075712
threshold=0.50383621454238903 0.99047547578811657 -0.66450166702270497 0.62502929568290722 -0.96118625998496998 -0.86200970411300648
decision_type=2 2 2 2 2 2
left_child=2 -2 -1 4 -4 -3
right_child=1 5 3 -5 -6 -7
leaf_value=0 -0.00022866517047891109 0 0 0 0.00067094376866496015 -0.0019367415649224143
leaf_weight=2409 2169 74 481 1397 3682 669
leaf_count=2409 2169 74 481 1397 3682 669
internal_value=0 -0.000706943 0.000283378 0.000431077 0.000581805 -0.00177691
internal_weight=10881 2912 7969 5560 4163 743
internal_count=10881 2912 7969 5560 4163 743
is_linear=0
shrinkage=0.0471706


Tree=10
num_leaves=9
num_cat=0
split_feature=10 20 12 13 17 3 22 7
split_gain=0.947859 0.364464 0.24408 0.163028 0.119178 0.103506 0.112356 0.0813999
threshold=1.2412532567977907 1.0944635868072512 -0.27840538322925562 0.79515278339385997 1.6125115752220156 -0.025775611400604245 0.31370483338832861 -1.8629661202430723
decision_type=2 2 2 2 2 2 2 2
left_child=2 -2 5 4 7 6 -1 -4
right_child=1 -3 3 -5 -6 -7 -8 -9
leaf_value=0 -0.00024591785694037436 -0.0023750132863575696 0 0 0 9.9514188500333367e-05 -0.0007761867422796054 0.00059603801762205151
leaf_weight=1344 796 460 186 1500 204 1278 845 4311
leaf_count=1344 796 460 186 1500 204 1278 845 4311
internal_value=0 -0.00121937 0.000153835 0.000341812 0.000480702 -0.000115801 -0.000346725 0.000548083
internal_weight=10924 1256 9668 6201 4701 3467 2189 4497
internal_count=10924 1256 9668 6201 4701 3467 2189 4497
is_linear=0
shrinkage=0.0471706


Tree=11
num_leaves=9
num_cat=0
split_feature=23 10 8 2 8 16 11 18
split_gain=0.932119 0.268194 0.194976 0.129164 0.12199 0.0845131 0.0748686 0.0737408
threshold=0.4458069801330567 0.99047547578811657 -0.75120595097541798 0.40988762676715856 -0.23326276987791059 -1.5325787663459776 -0.1288945525884628 -1.34538859128952
decision_type=2 2 2 2 2 2 2 2
left_child=2 4 5 6 -2 -1 -4 -6
right_child=1 -3 3 -5 7 -7 -8 -9
leaf_value=0 0 -0.0015442147830044513 0.00015069151661625468 0.00040236057996020702 0 0.00081650366608016379 -0.00024648411879145946 -0.00071490340121167578
leaf_weight=81 983 763 1754 2174 79 1766 2076 1243
leaf_count=81 983 763 1754 2174 79 1766 2076 1243
internal_value=0 -0.000685802 0.00028247 0.000104772 -0.000297012 0.000732274 -4.36782e-06 -0.000597841
internal_weight=10919 3068 7851 6004 2305 1847 3830 1322
internal_count=10919 3068 7851 6004 2305 1847 3830 1322
is_linear=0
shrinkage=0.0471706


Tree=12
num_leaves=9
num_cat=0
split_feature=16 19 8 8 9 3 23 2
split_gain=0.674801 0.345875 0.270691 0.211982 0.195988 0.186544 0.154245 0.122012
threshold=-0.9567049741744994 -0.074096720665693269 -0.63745605945587147 1.1210683584213259 -0.25457637012004847 0.022258193232119087 0.085812807083129897 0.21370771527290347
decision_type=2 2 2 2 2 2 2 2
left_child=1 -1 -2 4 -3 7 -6 -4
right_child=2 3 5 -5 6 -7 -8 -9
leaf_value=0 0.00057769314739339816 0 -0.0003941018402228473 0 0 0.00030607973047533219 -0.0023060919965261413 3.9656449639886489e-05
leaf_weight=614 2447 133 2793 110 178 2654 613 1275
leaf_count=614 2447 133 2793 110 178 2654 613 1275
internal_value=0 -0.00088054 0.000153822 -0.00140367 -0.00164577 0 -0.00192475 -0.000201579
internal_weight=10817 1648 9169 1034 924 6722 791 4068
internal_count=10817 1648 9169 1034 924 6722 791 4068
is_linear=0
shrinkage=0.0471706


Tree=13
num_leaves=10
num_cat=0
split_feature=23 16 21 8 8 13 2 10 2
split_gain=0.868097 0.284539 0.278633 0.231661 0.150465 0.143349 0.0996979 0.0874491 0.0786963
threshold=1.7628698945045473 -0.7734481394290923 -1.0011765360832212 -0.36797063052654261 1.9016531705856325 0.69033750891685497 0.30121462047100073 -1.686573266983032 0.21370771527290347
decision_type=2 2 2 2 2 2 2 2 2
left_child=1 5 -2 -3 6 -1 -5 -4 -7
right_child=2 3 7 4 -6 8 -8 -9 -10
leaf_value=0 0 0.00055435941668558354 0 -0.00023361871600791417 0.00086702969443067514 -0.0013479779442232215 0.0001890877443148157 -0.0022892410650797728 0
leaf_weight=1186 141 3351 66 3004 431 404 1722 489 165
leaf_count=1186 141 3351 66 3004 431 404 1722 489 165
internal_value=0 0.000116413 -0.00159511 0.000246374 8.62615e-07 -0.000380542 -3.06532e-05 -0.00206916 -0.000997297
internal_weight=10959 10263 696 8508 5157 1755 4726 555 569
internal_count=10959 10263 696 8508 5157 1755 4726 555 569
is_linear=0
shrinkage=0.0471706


Tree=14
num_leaves=9
num_cat=0
split_feature=16 19 2 8 8 8 18 8
split_gain=0.563184 0.297627 0.170488 0.143292 0.140712 0.127194 0.0814268 0.0802816
threshold=-0.7734481394290923 0.12800595909357074 0.30121462047100073 1.5145844221115115 -0.63745605945587147 1.3640767335891726 0.77899208664894115 -0.20520809292793271
decision_type=2 2 2 2 2 2 2 2
left_child=1 -1 4 -3 -2 7 -4 -6
right_child=2 3 6 -5 5 -7 -8 -9
leaf_value=0 0.00035770899366008855 -0.0014440739013558744 0.00052456200326694467 0 0 0.00030538542511375022 0 -0.00045809378276767248
leaf_weight=966 1560 990 2584 63 1185 606 597 2454
leaf_count=966 1560 990 2584 63 1185 606 597 2454
internal_value=-8.1929e-06 -0.00073693 0.00013035 -0.00128888 0 -0.00016256 0.000408477 -0.000304464
internal_weight=11005 2019 8986 1053 5805 4245 3181 3639
internal_count=11005 2019 8986 1053 5805 4245 3181 3639
is_linear=0
shrinkage=0.0471706


Tree=15
num_leaves=6
num_cat=0
split_feature=23 21 8 10 11
split_gain=0.792318 0.358994 0.115809 0.11403 0.104893
threshold=0.25519184768199926 0.042171273380517967 -0.53078237175941456 0.58094975352287304 0.10191673785448076
decision_type=2 2 2 2 2
left_child=4 2 -2 -3 -1
right_child=1 3 -4 -5 -6
leaf_value=0.0004088894435911631 0.00028544540873171644 -0.00034960361177991344 -0.0003650140782057697 -0.0017726842368819334 0
leaf_weight=4200 601 808 1714 700 2985
leaf_count=4200 601 808 1714 700 2985
internal_value=-1.42407e-05 -0.000581365 -9.61167e-05 -0.00116899 0.000255671
internal_weight=11008 3823 2315 1508 7185
internal_count=11008 3823 2315 1508 7185
is_linear=0
shrinkage=0.0471706


Tree=16
num_leaves=7
num_cat=0
split_feature=16 19 8 12 12 15
split_gain=0.700708 0.391507 0.257075 0.133462 0.0987575 0.0912464
threshold=-0.9567049741744994 -0.074096720665693269 -0.53078237175941456 1.0989013910293581 0.48050959408283239 0.18977712839841845
decision_type=2 2 2 2 2 2
left_child=1 -1 -2 5 -4 -3
right_child=2 3 4 -5 -6 -7
leaf_value=0 0.00054068981905623105 -0.0017997903545334095 -0.00012803705556868524 0 0.00025829678767219568 0
leaf_weight=615 2925 808 4176 85 2257 143
leaf_count=615 2925 808 4176 85 2257 143
internal_value=0 -0.000876045 0.00017461 -0.00143297 0 -0.00159526
internal_weight=11009 1651 9358 1036 6433 951
internal_count=11009 1651 9358 1036 6433 951
is_linear=0
shrinkage=0.0471706


Tree=17
num_leaves=8
num_cat=0
split_feature=23 21 6 17 15 9 13
split_gain=0.74975 0.211451 0.166534 0.125486 0.132665 0.094866 0.0749998
threshold=0.80128964781761181 0.3062711507081986 0.64225324988365184 -0.10479543358087538 1.0118446946144106 0.22986876219511035 -0.99841478466987599
decision_type=2 2 2 2 2 2 2
left_child=3 -2 -3 -1 5 -5 -4
right_child=1 2 6 4 -6 -7 -8
leaf_value=0 -0.00026948483458126766 0 0 0.00055428309182026301 0 0 -0.0024146803788865456
leaf_weight=3716 1433 154 105 3622 844 677 376
leaf_count=3716 1433 154 105 3622 844 677 376
internal_value=0 -0.000802831 -0.00162742 0.000192881 0.000343861 0.00045819 -0.00205885
internal_weight=10927 2068 635 8859 5143 4299 481
internal_count=10927 2068 635 8859 5143 4299 481
is_linear=0
shrinkage=0.0471706


Tree=18
num_leaves=8
num_cat=0
split_feature=16 8 12 19 19 0 8
split_gain=0.451872 0.31073 0.253628 0.136962 0.100046 0.0980742 0.0781588
threshold=-1.3514911532402036 -0.63745605945587147 -0.36274418234825129 -0.17293158173561093 0.23426157236099246 -0.86317592859268177 1.1210683584213259
decision_type=2 2 2 2 2 2 2
left_child=3 5 6 -1 -4 -2 -3
right_child=1 2 4 -5 -6 -7 -8
leaf_value=0 0 -0.00059470218730320464 0.00027051754464623015 -0.0012323125504702442 -0.00014478238577771331 0.00067741474527785298 0
leaf_weight=323 379 1853 3853 783 1135 2201 415
leaf_count=323 379 1853 3853 783 1135 2201 415
internal_value=0 0.00010489 -2.35524e-05 -0.000897222 0.000129613 0.000554431 -0.000461304
internal_weight=10942 9836 7256 1106 4988 2580 2268
internal_count=10942 9836 7256 1106 4988 2580 2268
is_linear=0
shrinkage=0.0471706


Tree=19
num_leaves=8
num_cat=0
split_feature=23 16 13 23 21 8 3
split_gain=0.606426 0.32942 0.213327 0.161785 0.161054 0.141363 0.110243
threshold=2.3204125165939335 -0.9567049741744994 -0.99841478466987599 -0.38818766176700586 -0.94578191637992848 -0.36797063052654261 0.13167004287242892
decision_type=2 2 2 2 2 2 2
left_child=1 2 -1 -4 -2 -3 -7
right_child=4 5 3 -5 -6 6 -8
leaf_value=0 0 0.00039685221696299526 0 -0.0011680008046957816 -0.0025206859139944274 -0.00014570067490775527 0.00029385564234351007
leaf_weight=326 87 3597 273 966 258 3446 1983
leaf_count=326 87 3597 273 966 258 3446 1983
internal_value=-5.15114e-06 3.7644e-05 -0.000560727 -0.000881529 -0.00194319 0.000167438 0
internal_weight=10936 10591 1565 1239 345 9026 5429
internal_count=10936 10591 1565 1239 345 9026 5429
is_linear=0
shrinkage=0.0471706


Tree=20
num_leaves=6
num_cat=0
split_feature=23 2 10 8 11
split_gain=0.62099 0.231048 0.199864 0.175872 0.107912
threshold=1.7628698945045473 0.21370771527290347 -1.2381860017776487 -0.63745605945587147 -0.1288945525884628
decision_type=2 2 2 2 2
left_child=1 3 -2 -1 -5
right_child=2 -3 -4 4 -6
leaf_value=0.00024445880425037059 0 0.00035877754396275669 -0.0018177227414470779 0 -0.00047455487893935177
leaf_weight=1805 136 3816 536 2164 2545
leaf_count=1805 136 3816 536 2164 2545
internal_value=-1.54441e-05 5.40169e-05 -0.00141073 -8.92676e-05 -0.000266455
internal_weight=11002 10330 672 6514 4709
internal_count=11002 10330 672 6514 4709
is_linear=0
shrinkage=0.0471706


Tree=21
num_leaves=6
num_cat=0
split_feature=23 23 1 18 3
split_gain=0.52847 0.142629 0.0971453 0.0740334 0.102252
threshold=0.4458069801330567 2.3204125165939335 -2.387083768844604 -0.83303761482238758 -0.048541475087404244
decision_type=2 2 2 2 2
left_child=2 3 -1 -2 -5
right_child=1 -3 -4 4 -6
leaf_value=-0.00017085371218681549 0 -0.0016138494030527775 0.00026802740186187136 -0.00063370464369570548 0
leaf_weight=649 402 345 7241 1588 798
leaf_count=649 402 345 7241 1588 798
internal_value=0 -0.000520797 0.000202482 -0.000298312 -0.000415605
internal_weight=11023 3133 7890 2788 2386
internal_count=11023 3133 7890 2788 2386
is_linear=0
shrinkage=0.0471706


Tree=22
num_leaves=6
num_cat=0
split_feature=23 10 13 11 13
split_gain=0.420205 0.277094 0.145876 0.113593 0.077195
threshold=0.4458069801330567 0.99047547578811657 -0.99841478466987599 0.10191673785448076 0.83030116558074962
decision_type=2 2 2 2 2
left_child=3 -2 -3 4 -1
right_child=1 2 -4 -5 -6
leaf_value=0.00044139200248258188 -7.5698621694026167e-05 0 -0.0015739403641632198 0 0
leaf_weight=3779 2317 161 617 3325 779
leaf_count=3779 2317 161 617 3325 779
internal_value=0 -0.000447543 -0.00124797 0.000199277 0.000352103
internal_weight=10978 3095 778 7883 4558
internal_count=10978 3095 778 7883 4558
is_linear=0
shrinkage=0.0471706


Tree=23
num_leaves=7
num_cat=0
split_feature=2 16 13 13 3 15
split_gain=0.409028 0.198525 0.163996 0.162268 0.130723 0.134253
threshold=-0.31457418203353876 -0.33568294346332544 -1.1062223911285398 0.79515278339385997 1.2353604435920718 0.067692968994379057
decision_type=2 2 2 2 2 2
left_child=1 2 -1 -2 5 -4
right_child=3 -3 4 -5 -6 -7
leaf_value=0 0.00035265868745403413 -5.5145214528616545e-05 -0.0014408084103242019 -0.00012579184788471021 0 0
leaf_weight=351 4831 2982 973 1463 87 242
leaf_count=351 4831 2982 973 1463 87 242
internal_value=-1.9759e-05 -0.000374224 -0.000807338 0.000204705 -0.00105111 -0.00119212
internal_weight=10929 4635 1653 6294 1302 1215
internal_count=10929 4635 1653 6294 1302 1215
is_linear=0
shrinkage=0.0471706


Tree=24
num_leaves=6
num_cat=0
split_feature=16 8 13 3 0
split_gain=0.334825 0.226357 0.177341 0.0957142 0.0872549
threshold=-0.7734481394290923 -0.36797063052654261 1.0730370879173281 0.13167004287242892 -0.82200759649276722
decision_type=2 2 2 2 2
left_child=2 4 -1 -3 -2
right_child=1 3 -4 -5 -6
leaf_value=-0.00016920376979150817 0 -0.00020692961447644681 -0.0015984276052749883 0.00018418014157371433 0.00054198341463855191
leaf_weight=1679 684 3510 362 1933 2848
leaf_count=1679 684 3510 362 1933 2848
internal_value=0 0.000126963 -0.000541164 -2.55094e-05 0.0004268
internal_weight=11016 8975 2041 5443 3532
internal_count=11016 8975 2041 5443 3532
is_linear=0
shrinkage=0.0471706


Tree=25
num_leaves=6
num_cat=0
split_feature=16 13 8 3 2
split_gain=0.454642 0.236173 0.134439 0.137357 0.119882
threshold=-1.2045944929122923 -0.99841478466987599 -0.63745605945587147 0.13167004287242892 1.0938835144042971
decision_type=2 2 2 2 2
left_child=1 -1 -2 4 -4
right_child=2 -3 3 -5 -6
leaf_value=0 0.00038147192036677951 -0.0011826891803989675 -0.00029132111242184666 0.00026409454212138081 0.00030620559848308556
leaf_weight=273 2638 1029 4014 2538 561
leaf_count=273 2638 1029 4014 2538 561
internal_value=0 -0.000840445 9.38602e-05 0 -0.000167128
internal_weight=11053 1302 9751 7113 4575
internal_count=11053 1302 9751 7113 4575
is_linear=0
shrinkage=0.0471706


Tree=26
num_leaves=7
num_cat=0
split_feature=16 13 19 3 8 3
split_gain=0.300227 0.204954 0.185093 0.130518 0.0916683 0.0777344
threshold=-0.7734481394290923 -0.99841478466987599 -0.074096720665693269 0.17149011790752414 -0.53078237175941456 0.067622371017932906
decision_type=2 2 2 2 2 2
left_child=1 -1 -3 4 -2 -4
right_child=3 2 5 -5 -6 -7
leaf_value=0 0.0002309688415797781 0 -0.0014334663918542051 0.00035386007049139327 -0.00015849943922602232 0
leaf_weight=396 1949 586 779 3036 3954 272
leaf_count=396 1949 586 779 3036 3954 272
internal_value=0 -0.000531743 -0.000792433 0.000100741 0 -0.00116791
internal_weight=10972 2033 1637 8939 5903 1051
internal_count=10972 2033 1637 8939 5903 1051
is_linear=0
shrinkage=0.0471706


Tree=27
num_leaves=6
num_cat=0
split_feature=23 13 10 1 7
split_gain=0.436693 0.171348 0.160898 0.0947957 0.188577
threshold=1.7628698945045473 1.16869592666626 -1.2381860017776487 -2.387083768844604 -0.87894272804260243
decision_type=2 2 2 2 2
left_child=1 3 -2 -1 -5
right_child=2 -3 -4 4 -6
leaf_value=-0.00030403975309210927 0 -0.00064280688828401579 -0.0015609710613141657 0.00058165443822229778 2.0156641128008839e-06
leaf_weight=876 145 751 547 1815 6817
leaf_count=876 145 751 547 1815 6817
internal_value=-4.72392e-05 8.36211e-06 -0.0011921 8.46394e-05 0.000151127
internal_weight=10951 10259 692 9508 8632
internal_count=10951 10259 692 9508 8632
is_linear=0
shrinkage=0.0471706


Tree=28
num_leaves=6
num_cat=0
split_feature=23 21 9 8 2
split_gain=0.306101 0.221142 0.118697 0.100761 0.0884866
threshold=0.4458069801330567 -0.14145094901323316 -1.1476944684982298 -1.1163091659545896 1.0938835144042971
decision_type=2 2 2 2 2
left_child=4 -2 -3 -4 -1
right_child=1 2 3 -5 -6
leaf_value=1.2294264014734306e-05 0 0 0 -0.0011200128932806989 0.00048599636249477838
leaf_weight=6462 1629 163 69 1224 1317
leaf_count=6462 1629 163 69 1224 1317
internal_value=-1.253e-05 -0.000427616 -0.000849857 -0.0010078 0.000122652
internal_weight=10864 3085 1456 1293 7779
internal_count=10864 3085 1456 1293 7779
is_linear=0
shrinkage=0.0471706


Tree=29
num_leaves=5
num_cat=0
split_feature=16 23 13 4
split_gain=0.278227 0.136884 0.118159 0.0732612
threshold=-1.7437016963958738 -0.12075008451938628 -0.73487767577171315 -0.54818984866142262
decision_type=2 2 2 2
left_child=2 -2 -1 -3
right_child=1 3 -4 -5
leaf_value=0 0.000223906255069816 -0.00037580878615503814 -0.00125538275114572 0
leaf_weight=197 5385 1535 538 3287
leaf_count=197 5385 1535 538 3287
internal_value=0 4.51164e-05 -0.000897073 -0.00010668
internal_weight=10942 10207 735 4822
internal_count=10942 10207 735 4822
is_linear=0
shrinkage=0.0471706


Tree=30
num_leaves=8
num_cat=0
split_feature=8 19 21 15 3 2 13
split_gain=0.223683 0.388748 0.161789 0.125168 0.0924412 0.106519 0.0814257
threshold=-0.63745605945587147 0.44107800722122198 0.042171273380517967 1.0118446946144106 0.2140082195401192 0.91473913192749035 1.16869592666626
decision_type=2 2 2 2 2 2 2
left_child=6 4 -3 -4 5 -2 -1
right_child=1 2 3 -5 -6 -7 -8
leaf_value=0.0004617216856384391 -0.00021685554507078973 -0.00011876441290862708 -0.0014509057993303889 0 0.00030852030391166288 0.00038063421479856514 0
leaf_weight=2633 3169 1267 748 75 2136 668 184
leaf_count=2633 3169 1267 748 75 2136 668 184
internal_value=0 -0.000119761 -0.000680556 -0.00125709 3.84585e-05 -5.20451e-05 0.000367668
internal_weight=10880 8063 2090 823 5973 3837 2817
internal_count=10880 8063 2090 823 5973 3837 2817
is_linear=0
shrinkage=0.0471706


Tree=31
num_leaves=6
num_cat=0
split_feature=23 10 2 13 4
split_gain=0.281822 0.171765 0.147458 0.118536 0.0808666
threshold=1.7628698945045473 -1.2381860017776487 -0.31457418203353876 0.69033750891685497 -0.41662663221359247
decision_type=2 2 2 2 2
left_child=2 -2 4 -4 -1
right_child=1 -3 3 -5 -6
leaf_value=-0.00034644037987819471 0 -0.0013123633024611982 0.0003722019221695289 0 0
leaf_weight=1833 144 538 4459 1714 2295
leaf_count=1833 144 538 4459 1714 2295
internal_value=0 -0.000899752 8.12857e-05 0.000239694 -9.96539e-05
internal_weight=10983 682 10301 6173 4128
internal_count=10983 682 10301 6173 4128
is_linear=0
shrinkage=0.0471706


Tree=32
num_leaves=5
num_cat=0
split_feature=10 8 8 19
split_gain=0.227428 0.141663 0.111549 0.110672
threshold=1.3839182853698733 -0.86200970411300648 2.1940829753875737 0.23426157236099246
decision_type=2 2 2 2
left_child=1 -1 -3 -2
right_child=3 2 -4 -5
leaf_value=0.00045382239348141894 0 -6.2010634954525452e-05 0.00080082381477216552 -0.001065871898804697
leaf_weight=1664 437 7926 331 628
leaf_count=1664 437 7926 331 628
internal_value=0 5.42639e-05 0 -0.000666468
internal_weight=10986 9921 8257 1065
internal_count=10986 9921 8257 1065
is_linear=0
shrinkage=0.0471706


Tree=33
num_leaves=5
num_cat=0
split_feature=23 15 23 8
split_gain=0.233932 0.195252 0.142052 0.0970575
threshold=0.085812807083129897 -0.35558865964412684 1.7628698945045473 -0.53078237175941456
decision_type=2 2 2 2
left_child=-1 2 -2 -3
right_child=1 3 -4 -5
leaf_value=0.0001727403870077353 -0.0002695816003384252 0.00038821394490939204 -0.0019978988775190398 -0.0002065731800986611
leaf_weight=6490 1222 789 239 2236
leaf_count=6490 1222 789 239 2236
internal_value=0 -0.000269571 -0.000719666 0
internal_weight=10976 4486 1461 3025
internal_count=10976 4486 1461 3025
is_linear=0
shrinkage=0.0471706


Tree=34
num_leaves=5
num_cat=0
split_feature=23 9 8 8
split_gain=0.262613 0.212403 0.179867 0.145059
threshold=1.7628698945045473 0.33975948393344885 2.1940829753875737 -0.36797063052654261
decision_type=2 2 2 2
left_child=2 -2 3 -1
right_child=1 -3 -4 -5
leaf_value=0.00022035462315476474 0 -0.0019793130275194046 0.001062694914682938 -0.00014696178985956917
leaf_weight=4025 442 257 361 5868
leaf_count=4025 442 257 361 5868
internal_value=0 -0.000895507 4.07101e-05 0
internal_weight=10953 699 10254 9893
internal_count=10953 699 10254 9893
is_linear=0
shrinkage=0.0471706


Tree=35
num_leaves=3
num_cat=0
split_feature=13 2
split_gain=0.183128 0.136901
threshold=0.79515278339385997 -0.34562414884567255
decision_type=2 2
left_child=1 -1
right_child=-2 -3
leaf_value=-0.00010505881791117081 -0.0003815273488071495 0.00025183449255586739
leaf_weight=3503 2443 4985
leaf_count=3503 2443 4985
internal_value=-4.26716e-06 7.73479e-05
internal_weight=10931 8488
internal_count=10931 8488
is_linear=0
shrinkage=0.0471706


Tree=36
num_leaves=7
num_cat=0
split_feature=23 12 16 13 21 8
split_gain=0.27437 0.124158 0.137131 0.13107 0.115948 0.0756677
threshold=2.3204125165939335 0.98452815413475048 -0.7734481394290923 1.0730370879173281 -1.059454560279846 -0.53078237175941456
decision_type=2 2 2 2 2 2
left_child=1 2 3 -1 -2 -4
right_child=4 -3 5 -5 -6 -7
leaf_value=-4.0949456023034076e-05 0 0.00040906215116210564 0.00027992663239946228 -0.0014354810689937378 -0.0017402788149931724 -1.4199360314677923e-05
leaf_weight=1372 67 1714 2353 272 274 4943
leaf_count=1372 67 1714 2353 272 274 4943
internal_value=0 3.50149e-05 -1.11541e-05 -0.000417887 -0.00130752 4.91882e-05
internal_weight=10995 10654 8940 1644 341 7296
internal_count=10995 10654 8940 1644 341 7296
is_linear=0
shrinkage=0.0471706


Tree=37
num_leaves=4
num_cat=0
split_feature=10 13 12
split_gain=0.144513 0.129124 0.08026
threshold=1.2412532567977907 0.24491439014673236 0.98452815413475048
decision_type=2 2 2
left_child=2 -2 -1
right_child=1 -3 -4
leaf_value=0 0 -0.00098511707342751795 0.00037353079434521819
leaf_weight=8112 690 571 1605
leaf_count=8112 690 571 1605
internal_value=0 -0.000465451 6.91711e-05
internal_weight=10978 1261 9717
internal_count=10978 1261 9717
is_linear=0
shrinkage=0.0471706


Tree=38
num_leaves=5
num_cat=0
split_feature=16 13 8 2
split_gain=0.253725 0.16465 0.163274 0.0814014
threshold=-1.2045944929122923 -0.73487767577171315 -0.63745605945587147 0.2574931681156159
decision_type=2 2 2 2
left_child=1 -1 -2 -3
right_child=2 3 -4 -5
leaf_value=0 0.00041532364711284627 -0.0011414471226932619 0 0
leaf_weight=327 2574 782 7151 184
leaf_count=327 2574 782 7151 184
internal_value=0 -0.000608818 9.18753e-05 -0.000933278
internal_weight=11018 1293 9725 966
internal_count=11018 1293 9725 966
is_linear=0
shrinkage=0.0471706


Tree=39
num_leaves=4
num_cat=0
split_feature=23 12 13
split_gain=0.199965 0.0768968 0.0737564
threshold=0.4458069801330567 -0.92791971564292897 -0.99841478466987599
decision_type=2 2 2
left_child=1 -1 -2
right_child=2 -3 -4
leaf_value=-8.0600002852667966e-05 0 0.00023138917234729654 -0.00039811340839886411
leaf_weight=1076 509 6759 2594
leaf_count=1076 509 6759 2594
internal_value=1.24769e-05 0.000158996 -0.000282527
internal_weight=10938 7835 3103
internal_count=10938 7835 3103
is_linear=0
shrinkage=0.0471706


Tree=40
num_leaves=3
num_cat=0
split_feature=23 16
split_gain=0.184838 0.122328
threshold=2.3204125165939335 -0.29019540548324579
decision_type=2 2
left_child=1 -1
right_child=-2 -3
leaf_value=-0.00017226318562188467 -0.0010445636784712322 0.00015918372185791106
leaf_weight=3314 357 7337
leaf_count=3314 357 7337
internal_value=0 3.42896e-05
internal_weight=11008 10651
internal_count=11008 10651
is_linear=0
shrinkage=0.0471706


Tree=41
num_leaves=5
num_cat=0
split_feature=4 16 3 9
split_gain=0.159704 0.122848 0.0789871 0.0886497
threshold=-0.24158158153295514 -0.7734481394290923 0.067622371017932906 0.22986876219511035
decision_type=2 2 2 2
left_child=1 2 3 -1
right_child=-2 -3 -4 -5
leaf_value=0 0.00012918527040283983 -2.7150619586363805e-05 0 -0.0011498430749085401
leaf_weight=177 6591 3377 127 664
leaf_count=177 6591 3377 127 664
internal_value=0 -0.000237333 -0.000726989 -0.000902459
internal_weight=10936 4345 968 841
internal_count=10936 4345 968 841
is_linear=0
shrinkage=0.0471706


Tree=42
num_leaves=4
num_cat=0
split_feature=8 16 8
split_gain=0.215568 0.172028 0.0728001
threshold=-0.63745605945587147 -0.7734481394290923 1.5145844221115115
decision_type=2 2 2
left_child=-1 2 -2
right_child=1 -3 -4
leaf_value=0.00035752398397312422 -0.00068943148237056201 0 0
leaf_weight=2854 1377 6591 188
leaf_count=2854 1377 6591 188
internal_value=0 -0.000118044 -0.00056176
internal_weight=11010 8156 1565
internal_count=11010 8156 1565
is_linear=0
shrinkage=0.0471706


Tree=43
num_leaves=4
num_cat=0
split_feature=23 15 4
split_gain=0.217803 0.148765 0.0719104
threshold=0.4458069801330567 -0.35558865964412684 -0.27183030545711512
decision_type=2 2 2
left_child=2 -2 -1
right_child=1 -3 -4
leaf_value=0 -0.00081848706558401067 0 0.00023365429126590462
leaf_weight=2666 1025 2029 5181
leaf_count=2666 1025 2029 5181
internal_value=0 -0.000343487 0.000125289
internal_weight=10901 3054 7847
internal_count=10901 3054 7847
is_linear=0
shrinkage=0.0471706


Tree=44
num_leaves=4
num_cat=0
split_feature=23 13 8
split_gain=0.183929 0.101374 0.0861516
threshold=0.50383621454238903 0.24491439014673236 -0.86200970411300648
decision_type=2 2 2
left_child=1 -1 -2
right_child=2 -3 -4
leaf_value=0.00030180192044258037 0 0 -0.00040811264511474203
leaf_weight=4289 331 3761 2607
leaf_count=4289 331 3761 2607
internal_value=6.99535e-06 0.000143467 -0.000287726
internal_weight=10988 8050 2938
internal_count=10988 8050 2938
is_linear=0
shrinkage=0.0471706


Tree=45
num_leaves=5
num_cat=0
split_feature=16 8 8 13
split_gain=0.167641 0.0956617 0.116195 0.0838634
threshold=-1.7437016963958738 1.5145844221115115 -0.20520809292793271 -0.73487767577171315
decision_type=2 2 2 2
left_child=3 2 -2 -1
right_child=1 -3 -4 -5
leaf_value=0 0.00012216429992182418 0.00050404860242881972 -0.0002028827833161308 -0.0010070643696109606
leaf_weight=194 4799 827 4560 547
leaf_count=194 4799 827 4560 547
internal_value=-1.99693e-05 7.99896e-06 -1.15431e-05 -0.000708989
internal_weight=10927 10186 9359 741
internal_count=10927 10186 9359 741
is_linear=0
shrinkage=0.0471706


Tree=46
num_leaves=4
num_cat=0
split_feature=23 13 2
split_gain=0.199066 0.124307 0.0752084
threshold=2.3204125165939335 -0.99841478466987599 -0.28394803404808039
decision_type=2 2 2
left_child=1 -1 -3
right_child=-2 2 -4
leaf_value=0.00041843185451836978 -0.0010806520125890757 -0.00018181827608530524 9.544765499360457e-05
leaf_weight=1757 343 3596 5281
leaf_count=1757 343 3596 5281
internal_value=0 5.52721e-05 0
internal_weight=10977 10634 8877
internal_count=10977 10634 8877
is_linear=0
shrinkage=0.0471706


Tree=47
num_leaves=4
num_cat=0
split_feature=20 10 4
split_gain=0.151092 0.204691 0.096108
threshold=0.35231968760490423 0.52427044510841381 -0.34075494110584253
decision_type=2 2 2
left_child=2 -2 -1
right_child=1 -3 -4
leaf_value=-9.3245417320442898e-05 0 -0.00082337772792747115 0.00021496003504537206
leaf_weight=2659 1931 1078 5311
leaf_count=2659 1931 1078 5311
internal_value=-2.38893e-06 -0.000305221 8.31377e-05
internal_weight=10979 3009 7970
internal_count=10979 3009 7970
is_linear=0
shrinkage=0.0471706


Tree=48
num_leaves=4
num_cat=0
split_feature=23 1 8
split_gain=0.115648 0.0887035 0.0785027
threshold=2.3204125165939335 2.8571399450302128 -0.86200970411300648
decision_type=2 2 2
left_child=2 -2 -1
right_child=1 -3 -4
leaf_value=0.00032568629125619641 -0.0012871394296324605 0 0
leaf_weight=1779 257 89 8819
leaf_count=1779 257 89 8819
internal_value=0 -0.000826975 3.75102e-05
internal_weight=10944 346 10598
internal_count=10944 346 10598
is_linear=0
shrinkage=0.0471706


end of trees

feature_importances:
ln_market_cap=54
volatility_60=36
price_volume_corr_20=29
reversal_20=22
bp_ratio=20
momentum_20=17
turnover_mean_20=13
dv_ttm=12
turnover_surge_ratio=9
ep_ratio=8
price_level_factor=8
rsrs_raw_18=8
reversal_10=7
reversal_5=6
momentum_10=5
amihud_20=4
ivol_20=4
momentum_5=4
relative_volume_20=4
atr_norm_20=3
high_low_range_20=2
turnover_std_20=2
volatility_20=2
volume_std_20=1

parameters:
[boosting: gbdt]
[objective: regression]
[metric: l2]
[tree_learner: serial]
[device_type: gpu]
[data_sample_strategy: bagging]
[data: ]
[valid: ]
[num_iterations: 500]
[learning_rate: 0.0471706]
[num_leaves: 16]
[num_threads: -1]
[seed: 42]
[deterministic: 0]
[force_col_wise: 1]
[force_row_wise: 0]
[histogram_pool_size: -1]
[max_depth: 8]
[min_data_in_leaf: 60]
[min_sum_hessian_in_leaf: 0.001]
[bagging_fraction: 0.77689]
[pos_bagging_fraction: 1]
[neg_bagging_fraction: 1]
[bagging_freq: 1]
[bagging_seed: 400]
[bagging_by_query: 0]
[feature_fraction: 0.793613]
[feature_fraction_bynode: 1]
[feature_fraction_seed: 30056]
[extra_trees: 0]
[extra_seed: 12879]
[early_stopping_round: 50]
[early_stopping_min_delta: 0]
[first_metric_only: 0]
[max_delta_step: 0]
[lambda_l1: 4.90627]
[lambda_l2: 8.44685]
[linear_lambda: 0]
[min_gain_to_split: 0.0718732]
[drop_rate: 0.1]
[max_drop: 50]
[skip_drop: 0.5]
[xgboost_dart_mode: 0]
[uniform_drop: 0]
[drop_seed: 17869]
[top_rate: 0.2]
[other_rate: 0.1]
[min_data_per_group: 100]
[max_cat_threshold: 32]
[cat_l2: 10]
[cat_smooth: 10]
[max_cat_to_onehot: 4]
[top_k: 20]
[monotone_constraints: ]
[monotone_constraints_method: basic]
[monotone_penalty: 0]
[feature_contri: ]
[forcedsplits_filename: ]
[refit_decay_rate: 0.9]
[cegb_tradeoff: 1]
[cegb_penalty_split: 0]
[cegb_penalty_feature_lazy: ]
[cegb_penalty_feature_coupled: ]
[path_smooth: 0]
[interaction_constraints: ]
[verbosity: -1]
[saved_feature_importance_type: 0]
[use_quantized_grad: 0]
[num_grad_quant_bins: 4]
[quant_train_renew_leaf: 0]
[stochastic_rounding: 1]
[linear_tree: 0]
[max_bin: 63]
[max_bin_by_feature: ]
[min_data_in_bin: 3]
[bin_construct_sample_cnt: 200000]
[data_random_seed: 175]
[is_enable_sparse: 1]
[enable_bundle: 1]
[use_missing: 1]
[zero_as_missing: 0]
[feature_pre_filter: 1]
[pre_partition: 0]
[two_round: 0]
[header: 0]
[label_column: ]
[weight_column: ]
[group_column: ]
[ignore_column: ]
[categorical_feature: ]
[forcedbins_filename: ]
[precise_float_parser: 0]
[parser_config_file: ]
[objective_seed: 16083]
[num_class: 1]
[is_unbalance: 0]
[scale_pos_weight: 1]
[sigmoid: 1]
[boost_from_average: 1]
[reg_sqrt: 0]
[alpha: 0.9]
[fair_c: 1]
[poisson_max_delta_step: 0.7]
[tweedie_variance_power: 1.5]
[lambdarank_truncation_level: 30]
[lambdarank_norm: 1]
[label_gain: ]
[lambdarank_position_bias_regularization: 0]
[eval_at: ]
[multi_error_top_k: 1]
[auc_mu_weights: ]
[num_machines: 1]
[local_listen_port: 12400]
[time_out: 120]
[machine_list_filename: ]
[machines: ]
[gpu_platform_id: 0]
[gpu_device_id: 0]
[gpu_use_dp: 0]
[num_gpu: 1]

end of parameters

pandas_categorical:null
